<?xml version="1.0" encoding="utf-8"?>
<Root>
  <ActivationFunctions>
    <Fn id="0" name="Linear" prob="0.25" />
    <Fn id="1" name="BipolarSigmoid" prob="0.25" />
    <Fn id="2" name="Gaussian" prob="0.25" />
    <Fn id="3" name="Sine" prob="0.25" />
  </ActivationFunctions>
  <Networks>
    <Network id="2593" birthGen="20" fitness="99.350274533529245">
      <Nodes>
        <Node type="bias" id="0" fnId="0" />
        <Node type="in" id="1" fnId="0" />
        <Node type="in" id="2" fnId="0" />
        <Node type="in" id="3" fnId="0" />
        <Node type="in" id="4" fnId="0" />
        <Node type="in" id="5" fnId="0" />
        <Node type="in" id="6" fnId="0" />
        <Node type="out" id="7" fnId="0" />
        <Node type="out" id="8" fnId="0" />
        <Node type="hid" id="83" fnId="3" />
      </Nodes>
      <Connections>
        <Con id="26" src="5" tgt="7" wght="0.2406906895839262" />
        <Con id="30" src="2" tgt="8" wght="-3.7109288550001742" />
        <Con id="35" src="6" tgt="8" wght="-1.9856498082306757" />
        <Con id="84" src="0" tgt="83" wght="2.8723673354117807" />
        <Con id="85" src="83" tgt="8" wght="-1.379751106724143" />
        <Con id="96" src="2" tgt="83" wght="2.9348491169317716" />
        <Con id="127" src="83" tgt="83" wght="-1.0101269187806834" />
      </Connections>
    </Network>
  </Networks>
</Root>