<?xml version="1.0" encoding="utf-8"?>
<Root>
  <ActivationFunctions>
    <Fn id="0" name="Linear" prob="0.25" />
    <Fn id="1" name="BipolarSigmoid" prob="0.25" />
    <Fn id="2" name="Gaussian" prob="0.25" />
    <Fn id="3" name="Sine" prob="0.25" />
  </ActivationFunctions>
  <Networks>
    <Network id="36790" birthGen="183" fitness="98.772635098247846">
      <Nodes>
        <Node type="bias" id="0" fnId="0" />
        <Node type="in" id="1" fnId="0" />
        <Node type="in" id="2" fnId="0" />
        <Node type="in" id="3" fnId="0" />
        <Node type="in" id="4" fnId="0" />
        <Node type="in" id="5" fnId="0" />
        <Node type="in" id="6" fnId="0" />
        <Node type="in" id="7" fnId="0" />
        <Node type="out" id="8" fnId="0" />
        <Node type="out" id="9" fnId="0" />
        <Node type="out" id="10" fnId="0" />
        <Node type="out" id="11" fnId="0" />
        <Node type="out" id="12" fnId="0" />
        <Node type="out" id="13" fnId="0" />
      </Nodes>
      <Connections>
        <Con id="26" src="2" tgt="8" wght="0.013044848665925046" />
        <Con id="36" src="3" tgt="12" wght="-0.23394839815112012" />
        <Con id="62" src="0" tgt="10" wght="2.7993776699264545" />
        <Con id="63" src="5" tgt="10" wght="-3.5908975784188457" />
        <Con id="64" src="6" tgt="10" wght="-4.942840675230384" />
        <Con id="65" src="5" tgt="8" wght="-0.24867841819615627" />
        <Con id="66" src="6" tgt="8" wght="0.108476552665433" />
        <Con id="77" src="12" tgt="9" wght="-2.7365908404855137" />
        <Con id="86" src="1" tgt="9" wght="3.23940279923356" />
      </Connections>
    </Network>
  </Networks>
</Root>