<?xml version="1.0" encoding="utf-8"?>
<Root>
  <ActivationFunctions>
    <Fn id="0" name="PlainSigmoid" prob="1" />
  </ActivationFunctions>
  <Networks>
    <Network id="284517" birthGen="1422" fitness="7.04298121606235">
      <Nodes>
        <Node type="bias" id="0" />
        <Node type="in" id="1" />
        <Node type="in" id="2" />
        <Node type="in" id="3" />
        <Node type="out" id="4" />
        <Node type="out" id="5" />
        <Node type="out" id="6" />
        <Node type="hid" id="63" />
        <Node type="hid" id="69" />
        <Node type="hid" id="80" />
        <Node type="hid" id="91" />
        <Node type="hid" id="460" />
      </Nodes>
      <Connections>
        <Con id="15" src="2" tgt="6" wght="-1.560114813389702" />
        <Con id="22" src="2" tgt="4" wght="-0.19213414272602192" />
        <Con id="25" src="3" tgt="5" wght="3.6925222192141582" />
        <Con id="35" src="0" tgt="4" wght="-0.07273408440279322" />
        <Con id="36" src="3" tgt="6" wght="1.8762949136397387" />
        <Con id="64" src="0" tgt="63" wght="-0.030419010275524572" />
        <Con id="70" src="0" tgt="69" wght="2.0492464060083564" />
        <Con id="73" src="69" tgt="6" wght="-3.896108372920871" />
        <Con id="78" src="63" tgt="6" wght="5" />
        <Con id="79" src="63" tgt="4" wght="-4.9580280470892584" />
        <Con id="82" src="80" tgt="5" wght="0.15889221813975718" />
        <Con id="101" src="1" tgt="69" wght="-4.2166696945126381" />
        <Con id="120" src="3" tgt="69" wght="5" />
        <Con id="132" src="2" tgt="69" wght="-4.1739146863065795" />
        <Con id="136" src="69" tgt="91" wght="-4.9174447035741453" />
        <Con id="155" src="1" tgt="63" wght="-1.0549494763836265" />
        <Con id="167" src="63" tgt="80" wght="4.7797767503134176" />
        <Con id="293" src="63" tgt="5" wght="-0.31798772722322011" />
        <Con id="461" src="69" tgt="460" wght="-4.4532226157573316" />
        <Con id="462" src="460" tgt="80" wght="5" />
      </Connections>
    </Network>
  </Networks>
</Root>