<?xml version="1.0" encoding="utf-8"?>
<Root>
  <ActivationFunctions>
    <Fn id="0" name="Linear" prob="0.25" />
    <Fn id="1" name="BipolarSigmoid" prob="0.25" />
    <Fn id="2" name="Gaussian" prob="0.25" />
    <Fn id="3" name="Sine" prob="0.25" />
  </ActivationFunctions>
  <Networks>
    <Network id="0" birthGen="0" fitness="0">
      <Nodes>
        <Node type="bias" id="0" fnId="0" />
        <Node type="in" id="1" fnId="0" />
        <Node type="in" id="2" fnId="0" />
        <Node type="in" id="3" fnId="0" />
        <Node type="in" id="4" fnId="0" />
        <Node type="in" id="5" fnId="0" />
        <Node type="in" id="6" fnId="0" />
        <Node type="in" id="7" fnId="0" />
        <Node type="out" id="8" fnId="0" />
        <Node type="out" id="9" fnId="0" />
        <Node type="out" id="10" fnId="0" />
        <Node type="out" id="11" fnId="0" />
        <Node type="out" id="12" fnId="0" />
        <Node type="out" id="13" fnId="0" />
      </Nodes>
      <Connections>
        <Con id="32" src="3" tgt="8" wght="-0.6780978012830019" />
        <Con id="36" src="3" tgt="12" wght="-2.6286651846021414" />
        <Con id="62" src="0" tgt="10" wght="1.7003458039835095" />
        <Con id="63" src="5" tgt="10" wght="-2.7344743628054857" />
        <Con id="64" src="5" tgt="13" wght="-2.7344743628054857" />
        <Con id="65" src="6" tgt="10" wght="-2.7344743628054857" />
        <Con id="66" src="6" tgt="13" wght="-2.7344743628054857" />
        <Con id="67" src="5" tgt="8" wght="4.8067184491083026" />
        <Con id="68" src="6" tgt="8" wght="4.9860991025343537" />
      </Connections>
    </Network>
    <Network id="1" birthGen="0" fitness="0">
      <Nodes>
        <Node type="bias" id="0" fnId="0" />
        <Node type="in" id="1" fnId="0" />
        <Node type="in" id="2" fnId="0" />
        <Node type="in" id="3" fnId="0" />
        <Node type="in" id="4" fnId="0" />
        <Node type="in" id="5" fnId="0" />
        <Node type="in" id="6" fnId="0" />
        <Node type="in" id="7" fnId="0" />
        <Node type="out" id="8" fnId="0" />
        <Node type="out" id="9" fnId="0" />
        <Node type="out" id="10" fnId="0" />
        <Node type="out" id="11" fnId="0" />
        <Node type="out" id="12" fnId="0" />
        <Node type="out" id="13" fnId="0" />
      </Nodes>
      <Connections>
        <Con id="18" src="0" tgt="12" wght="-4.0621133428066969" />
        <Con id="34" src="3" tgt="10" wght="-1.4123827498406172" />
        <Con id="62" src="0" tgt="10" wght="3.2782279374077916" />
        <Con id="63" src="5" tgt="10" wght="-1.5424713073298335" />
        <Con id="64" src="5" tgt="13" wght="-1.5424713073298335" />
        <Con id="65" src="6" tgt="10" wght="-1.5424713073298335" />
        <Con id="66" src="6" tgt="13" wght="-1.5424713073298335" />
        <Con id="67" src="5" tgt="8" wght="4.7043119091540575" />
        <Con id="68" src="6" tgt="8" wght="1.672724848613143" />
      </Connections>
    </Network>
    <Network id="2" birthGen="0" fitness="0">
      <Nodes>
        <Node type="bias" id="0" fnId="0" />
        <Node type="in" id="1" fnId="0" />
        <Node type="in" id="2" fnId="0" />
        <Node type="in" id="3" fnId="0" />
        <Node type="in" id="4" fnId="0" />
        <Node type="in" id="5" fnId="0" />
        <Node type="in" id="6" fnId="0" />
        <Node type="in" id="7" fnId="0" />
        <Node type="out" id="8" fnId="0" />
        <Node type="out" id="9" fnId="0" />
        <Node type="out" id="10" fnId="0" />
        <Node type="out" id="11" fnId="0" />
        <Node type="out" id="12" fnId="0" />
        <Node type="out" id="13" fnId="0" />
      </Nodes>
      <Connections>
        <Con id="17" src="0" tgt="11" wght="-3.2651457283645868" />
        <Con id="28" src="2" tgt="10" wght="0.48309804871678352" />
        <Con id="62" src="0" tgt="10" wght="4.6628498611971736" />
        <Con id="63" src="5" tgt="10" wght="-1.1681450717151165" />
        <Con id="64" src="5" tgt="13" wght="-1.1681450717151165" />
        <Con id="65" src="6" tgt="10" wght="-1.1681450717151165" />
        <Con id="66" src="6" tgt="13" wght="-1.1681450717151165" />
        <Con id="67" src="5" tgt="8" wght="4.519007159397006" />
        <Con id="68" src="6" tgt="8" wght="3.4111896064132452" />
      </Connections>
    </Network>
    <Network id="3" birthGen="0" fitness="0">
      <Nodes>
        <Node type="bias" id="0" fnId="0" />
        <Node type="in" id="1" fnId="0" />
        <Node type="in" id="2" fnId="0" />
        <Node type="in" id="3" fnId="0" />
        <Node type="in" id="4" fnId="0" />
        <Node type="in" id="5" fnId="0" />
        <Node type="in" id="6" fnId="0" />
        <Node type="in" id="7" fnId="0" />
        <Node type="out" id="8" fnId="0" />
        <Node type="out" id="9" fnId="0" />
        <Node type="out" id="10" fnId="0" />
        <Node type="out" id="11" fnId="0" />
        <Node type="out" id="12" fnId="0" />
        <Node type="out" id="13" fnId="0" />
      </Nodes>
      <Connections>
        <Con id="17" src="0" tgt="11" wght="2.2124625230208039" />
        <Con id="38" src="4" tgt="8" wght="2.2682939516380429" />
        <Con id="62" src="0" tgt="10" wght="3.8940234808251262" />
        <Con id="63" src="5" tgt="10" wght="-1.0088039981201291" />
        <Con id="64" src="5" tgt="13" wght="-1.0088039981201291" />
        <Con id="65" src="6" tgt="10" wght="-1.0088039981201291" />
        <Con id="66" src="6" tgt="13" wght="-1.0088039981201291" />
        <Con id="67" src="5" tgt="8" wght="0.031677638180553913" />
        <Con id="68" src="6" tgt="8" wght="3.5773812094703317" />
      </Connections>
    </Network>
    <Network id="4" birthGen="0" fitness="0">
      <Nodes>
        <Node type="bias" id="0" fnId="0" />
        <Node type="in" id="1" fnId="0" />
        <Node type="in" id="2" fnId="0" />
        <Node type="in" id="3" fnId="0" />
        <Node type="in" id="4" fnId="0" />
        <Node type="in" id="5" fnId="0" />
        <Node type="in" id="6" fnId="0" />
        <Node type="in" id="7" fnId="0" />
        <Node type="out" id="8" fnId="0" />
        <Node type="out" id="9" fnId="0" />
        <Node type="out" id="10" fnId="0" />
        <Node type="out" id="11" fnId="0" />
        <Node type="out" id="12" fnId="0" />
        <Node type="out" id="13" fnId="0" />
      </Nodes>
      <Connections>
        <Con id="17" src="0" tgt="11" wght="-3.269998705945909" />
        <Con id="45" src="5" tgt="9" wght="4.0973606985062361" />
        <Con id="51" src="6" tgt="9" wght="-4.25775817129761" />
        <Con id="62" src="0" tgt="10" wght="2.5199621729552746" />
        <Con id="63" src="5" tgt="10" wght="-3.9214990101754665" />
        <Con id="64" src="5" tgt="13" wght="-3.9214990101754665" />
        <Con id="65" src="6" tgt="10" wght="-3.9214990101754665" />
        <Con id="66" src="6" tgt="13" wght="-3.9214990101754665" />
        <Con id="67" src="5" tgt="8" wght="4.16421749163419" />
        <Con id="68" src="6" tgt="8" wght="2.53308710642159" />
      </Connections>
    </Network>
    <Network id="5" birthGen="0" fitness="0">
      <Nodes>
        <Node type="bias" id="0" fnId="0" />
        <Node type="in" id="1" fnId="0" />
        <Node type="in" id="2" fnId="0" />
        <Node type="in" id="3" fnId="0" />
        <Node type="in" id="4" fnId="0" />
        <Node type="in" id="5" fnId="0" />
        <Node type="in" id="6" fnId="0" />
        <Node type="in" id="7" fnId="0" />
        <Node type="out" id="8" fnId="0" />
        <Node type="out" id="9" fnId="0" />
        <Node type="out" id="10" fnId="0" />
        <Node type="out" id="11" fnId="0" />
        <Node type="out" id="12" fnId="0" />
        <Node type="out" id="13" fnId="0" />
      </Nodes>
      <Connections>
        <Con id="36" src="3" tgt="12" wght="3.6069895559921861" />
        <Con id="38" src="4" tgt="8" wght="-1.6647858591750264" />
        <Con id="54" src="6" tgt="12" wght="-1.7387642478570342" />
        <Con id="62" src="0" tgt="10" wght="0.86423170752823353" />
        <Con id="63" src="5" tgt="10" wght="-3.045880957506597" />
        <Con id="64" src="5" tgt="13" wght="-3.045880957506597" />
        <Con id="65" src="6" tgt="10" wght="-3.045880957506597" />
        <Con id="66" src="6" tgt="13" wght="-3.045880957506597" />
        <Con id="67" src="5" tgt="8" wght="4.865497462451458" />
        <Con id="68" src="6" tgt="8" wght="2.7084115333855152" />
      </Connections>
    </Network>
    <Network id="6" birthGen="0" fitness="0">
      <Nodes>
        <Node type="bias" id="0" fnId="0" />
        <Node type="in" id="1" fnId="0" />
        <Node type="in" id="2" fnId="0" />
        <Node type="in" id="3" fnId="0" />
        <Node type="in" id="4" fnId="0" />
        <Node type="in" id="5" fnId="0" />
        <Node type="in" id="6" fnId="0" />
        <Node type="in" id="7" fnId="0" />
        <Node type="out" id="8" fnId="0" />
        <Node type="out" id="9" fnId="0" />
        <Node type="out" id="10" fnId="0" />
        <Node type="out" id="11" fnId="0" />
        <Node type="out" id="12" fnId="0" />
        <Node type="out" id="13" fnId="0" />
      </Nodes>
      <Connections>
        <Con id="32" src="3" tgt="8" wght="1.547322547994554" />
        <Con id="34" src="3" tgt="10" wght="4.9574263254180551" />
        <Con id="62" src="0" tgt="10" wght="2.6990324258804321" />
        <Con id="63" src="5" tgt="10" wght="-4.3831080524250865" />
        <Con id="64" src="5" tgt="13" wght="-4.3831080524250865" />
        <Con id="65" src="6" tgt="10" wght="-4.3831080524250865" />
        <Con id="66" src="6" tgt="13" wght="-4.3831080524250865" />
        <Con id="67" src="5" tgt="8" wght="2.9497617809101939" />
        <Con id="68" src="6" tgt="8" wght="1.2703305296599865" />
      </Connections>
    </Network>
    <Network id="7" birthGen="0" fitness="0">
      <Nodes>
        <Node type="bias" id="0" fnId="0" />
        <Node type="in" id="1" fnId="0" />
        <Node type="in" id="2" fnId="0" />
        <Node type="in" id="3" fnId="0" />
        <Node type="in" id="4" fnId="0" />
        <Node type="in" id="5" fnId="0" />
        <Node type="in" id="6" fnId="0" />
        <Node type="in" id="7" fnId="0" />
        <Node type="out" id="8" fnId="0" />
        <Node type="out" id="9" fnId="0" />
        <Node type="out" id="10" fnId="0" />
        <Node type="out" id="11" fnId="0" />
        <Node type="out" id="12" fnId="0" />
        <Node type="out" id="13" fnId="0" />
      </Nodes>
      <Connections>
        <Con id="26" src="2" tgt="8" wght="3.9071633340790868" />
        <Con id="35" src="3" tgt="11" wght="1.329096769914031" />
        <Con id="62" src="0" tgt="10" wght="1.8103274190798402" />
        <Con id="63" src="5" tgt="10" wght="-4.5542110968381166" />
        <Con id="64" src="5" tgt="13" wght="-4.5542110968381166" />
        <Con id="65" src="6" tgt="10" wght="-4.5542110968381166" />
        <Con id="66" src="6" tgt="13" wght="-4.5542110968381166" />
        <Con id="67" src="5" tgt="8" wght="2.5968238338828087" />
        <Con id="68" src="6" tgt="8" wght="0.40917928330600262" />
      </Connections>
    </Network>
    <Network id="8" birthGen="0" fitness="0">
      <Nodes>
        <Node type="bias" id="0" fnId="0" />
        <Node type="in" id="1" fnId="0" />
        <Node type="in" id="2" fnId="0" />
        <Node type="in" id="3" fnId="0" />
        <Node type="in" id="4" fnId="0" />
        <Node type="in" id="5" fnId="0" />
        <Node type="in" id="6" fnId="0" />
        <Node type="in" id="7" fnId="0" />
        <Node type="out" id="8" fnId="0" />
        <Node type="out" id="9" fnId="0" />
        <Node type="out" id="10" fnId="0" />
        <Node type="out" id="11" fnId="0" />
        <Node type="out" id="12" fnId="0" />
        <Node type="out" id="13" fnId="0" />
      </Nodes>
      <Connections>
        <Con id="17" src="0" tgt="11" wght="-3.6544266529381275" />
        <Con id="25" src="1" tgt="13" wght="3.1646616570651531" />
        <Con id="62" src="0" tgt="10" wght="3.86907531414181" />
        <Con id="63" src="5" tgt="10" wght="-4.7218968998640776" />
        <Con id="64" src="5" tgt="13" wght="-4.7218968998640776" />
        <Con id="65" src="6" tgt="10" wght="-4.7218968998640776" />
        <Con id="66" src="6" tgt="13" wght="-4.7218968998640776" />
        <Con id="67" src="5" tgt="8" wght="1.0899723134934902" />
        <Con id="68" src="6" tgt="8" wght="1.856745257973671" />
      </Connections>
    </Network>
    <Network id="9" birthGen="0" fitness="0">
      <Nodes>
        <Node type="bias" id="0" fnId="0" />
        <Node type="in" id="1" fnId="0" />
        <Node type="in" id="2" fnId="0" />
        <Node type="in" id="3" fnId="0" />
        <Node type="in" id="4" fnId="0" />
        <Node type="in" id="5" fnId="0" />
        <Node type="in" id="6" fnId="0" />
        <Node type="in" id="7" fnId="0" />
        <Node type="out" id="8" fnId="0" />
        <Node type="out" id="9" fnId="0" />
        <Node type="out" id="10" fnId="0" />
        <Node type="out" id="11" fnId="0" />
        <Node type="out" id="12" fnId="0" />
        <Node type="out" id="13" fnId="0" />
      </Nodes>
      <Connections>
        <Con id="31" src="2" tgt="13" wght="4.412720981054008" />
        <Con id="45" src="5" tgt="9" wght="-2.4043519934639335" />
        <Con id="61" src="7" tgt="13" wght="-4.8890751227736473" />
        <Con id="62" src="0" tgt="10" wght="3.9259341871365905" />
        <Con id="63" src="5" tgt="10" wght="-2.6731747388839722" />
        <Con id="64" src="5" tgt="13" wght="-2.6731747388839722" />
        <Con id="65" src="6" tgt="10" wght="-2.6731747388839722" />
        <Con id="66" src="6" tgt="13" wght="-2.6731747388839722" />
        <Con id="67" src="5" tgt="8" wght="1.7232699180021882" />
        <Con id="68" src="6" tgt="8" wght="3.8821052946150303" />
      </Connections>
    </Network>
    <Network id="10" birthGen="0" fitness="0">
      <Nodes>
        <Node type="bias" id="0" fnId="0" />
        <Node type="in" id="1" fnId="0" />
        <Node type="in" id="2" fnId="0" />
        <Node type="in" id="3" fnId="0" />
        <Node type="in" id="4" fnId="0" />
        <Node type="in" id="5" fnId="0" />
        <Node type="in" id="6" fnId="0" />
        <Node type="in" id="7" fnId="0" />
        <Node type="out" id="8" fnId="0" />
        <Node type="out" id="9" fnId="0" />
        <Node type="out" id="10" fnId="0" />
        <Node type="out" id="11" fnId="0" />
        <Node type="out" id="12" fnId="0" />
        <Node type="out" id="13" fnId="0" />
      </Nodes>
      <Connections>
        <Con id="18" src="0" tgt="12" wght="1.7760780127719045" />
        <Con id="60" src="7" tgt="12" wght="-4.5288190478459" />
        <Con id="62" src="0" tgt="10" wght="3.1039435928687453" />
        <Con id="63" src="5" tgt="10" wght="-3.800987764261663" />
        <Con id="64" src="5" tgt="13" wght="-3.800987764261663" />
        <Con id="65" src="6" tgt="10" wght="-3.800987764261663" />
        <Con id="66" src="6" tgt="13" wght="-3.800987764261663" />
        <Con id="67" src="5" tgt="8" wght="1.487250211648643" />
        <Con id="68" src="6" tgt="8" wght="3.2604214362800121" />
      </Connections>
    </Network>
    <Network id="11" birthGen="0" fitness="0">
      <Nodes>
        <Node type="bias" id="0" fnId="0" />
        <Node type="in" id="1" fnId="0" />
        <Node type="in" id="2" fnId="0" />
        <Node type="in" id="3" fnId="0" />
        <Node type="in" id="4" fnId="0" />
        <Node type="in" id="5" fnId="0" />
        <Node type="in" id="6" fnId="0" />
        <Node type="in" id="7" fnId="0" />
        <Node type="out" id="8" fnId="0" />
        <Node type="out" id="9" fnId="0" />
        <Node type="out" id="10" fnId="0" />
        <Node type="out" id="11" fnId="0" />
        <Node type="out" id="12" fnId="0" />
        <Node type="out" id="13" fnId="0" />
      </Nodes>
      <Connections>
        <Con id="14" src="0" tgt="8" wght="3.5218490660190582" />
        <Con id="40" src="4" tgt="10" wght="-0.55701101664453745" />
        <Con id="48" src="5" tgt="12" wght="3.184182639233768" />
        <Con id="62" src="0" tgt="10" wght="2.9036349058151245" />
        <Con id="63" src="5" tgt="10" wght="-0.77927257865667343" />
        <Con id="64" src="5" tgt="13" wght="-0.77927257865667343" />
        <Con id="65" src="6" tgt="10" wght="-0.77927257865667343" />
        <Con id="66" src="6" tgt="13" wght="-0.77927257865667343" />
        <Con id="67" src="5" tgt="8" wght="0.46961980871856213" />
        <Con id="68" src="6" tgt="8" wght="2.3062340077012777" />
      </Connections>
    </Network>
    <Network id="12" birthGen="0" fitness="0">
      <Nodes>
        <Node type="bias" id="0" fnId="0" />
        <Node type="in" id="1" fnId="0" />
        <Node type="in" id="2" fnId="0" />
        <Node type="in" id="3" fnId="0" />
        <Node type="in" id="4" fnId="0" />
        <Node type="in" id="5" fnId="0" />
        <Node type="in" id="6" fnId="0" />
        <Node type="in" id="7" fnId="0" />
        <Node type="out" id="8" fnId="0" />
        <Node type="out" id="9" fnId="0" />
        <Node type="out" id="10" fnId="0" />
        <Node type="out" id="11" fnId="0" />
        <Node type="out" id="12" fnId="0" />
        <Node type="out" id="13" fnId="0" />
      </Nodes>
      <Connections>
        <Con id="19" src="0" tgt="13" wght="-3.6909928685054183" />
        <Con id="31" src="2" tgt="13" wght="-3.2898448081687093" />
        <Con id="62" src="0" tgt="10" wght="0.26386310812085867" />
        <Con id="63" src="5" tgt="10" wght="-2.9431169060990214" />
        <Con id="64" src="5" tgt="13" wght="-2.9431169060990214" />
        <Con id="65" src="6" tgt="10" wght="-2.9431169060990214" />
        <Con id="66" src="6" tgt="13" wght="-2.9431169060990214" />
        <Con id="67" src="5" tgt="8" wght="3.3939456753432751" />
        <Con id="68" src="6" tgt="8" wght="1.5449044667184353" />
      </Connections>
    </Network>
    <Network id="13" birthGen="0" fitness="0">
      <Nodes>
        <Node type="bias" id="0" fnId="0" />
        <Node type="in" id="1" fnId="0" />
        <Node type="in" id="2" fnId="0" />
        <Node type="in" id="3" fnId="0" />
        <Node type="in" id="4" fnId="0" />
        <Node type="in" id="5" fnId="0" />
        <Node type="in" id="6" fnId="0" />
        <Node type="in" id="7" fnId="0" />
        <Node type="out" id="8" fnId="0" />
        <Node type="out" id="9" fnId="0" />
        <Node type="out" id="10" fnId="0" />
        <Node type="out" id="11" fnId="0" />
        <Node type="out" id="12" fnId="0" />
        <Node type="out" id="13" fnId="0" />
      </Nodes>
      <Connections>
        <Con id="30" src="2" tgt="12" wght="-0.5040346784517169" />
        <Con id="45" src="5" tgt="9" wght="1.4666014444082975" />
        <Con id="62" src="0" tgt="10" wght="3.951379912905395" />
        <Con id="63" src="5" tgt="10" wght="-0.86548663675785065" />
        <Con id="64" src="5" tgt="13" wght="-0.86548663675785065" />
        <Con id="65" src="6" tgt="10" wght="-0.86548663675785065" />
        <Con id="66" src="6" tgt="13" wght="-0.86548663675785065" />
        <Con id="67" src="5" tgt="8" wght="2.7890711836516857" />
        <Con id="68" src="6" tgt="8" wght="1.6405443847179413" />
      </Connections>
    </Network>
    <Network id="14" birthGen="0" fitness="0">
      <Nodes>
        <Node type="bias" id="0" fnId="0" />
        <Node type="in" id="1" fnId="0" />
        <Node type="in" id="2" fnId="0" />
        <Node type="in" id="3" fnId="0" />
        <Node type="in" id="4" fnId="0" />
        <Node type="in" id="5" fnId="0" />
        <Node type="in" id="6" fnId="0" />
        <Node type="in" id="7" fnId="0" />
        <Node type="out" id="8" fnId="0" />
        <Node type="out" id="9" fnId="0" />
        <Node type="out" id="10" fnId="0" />
        <Node type="out" id="11" fnId="0" />
        <Node type="out" id="12" fnId="0" />
        <Node type="out" id="13" fnId="0" />
      </Nodes>
      <Connections>
        <Con id="34" src="3" tgt="10" wght="2.9712208779528737" />
        <Con id="41" src="4" tgt="11" wght="1.4434548793360591" />
        <Con id="45" src="5" tgt="9" wght="0.76061949133872986" />
        <Con id="62" src="0" tgt="10" wght="1.453011641278863" />
        <Con id="63" src="5" tgt="10" wght="-4.8134712129831314" />
        <Con id="64" src="5" tgt="13" wght="-4.8134712129831314" />
        <Con id="65" src="6" tgt="10" wght="-4.8134712129831314" />
        <Con id="66" src="6" tgt="13" wght="-4.8134712129831314" />
        <Con id="67" src="5" tgt="8" wght="3.425455610267818" />
        <Con id="68" src="6" tgt="8" wght="0.71764853782951832" />
      </Connections>
    </Network>
    <Network id="15" birthGen="0" fitness="0">
      <Nodes>
        <Node type="bias" id="0" fnId="0" />
        <Node type="in" id="1" fnId="0" />
        <Node type="in" id="2" fnId="0" />
        <Node type="in" id="3" fnId="0" />
        <Node type="in" id="4" fnId="0" />
        <Node type="in" id="5" fnId="0" />
        <Node type="in" id="6" fnId="0" />
        <Node type="in" id="7" fnId="0" />
        <Node type="out" id="8" fnId="0" />
        <Node type="out" id="9" fnId="0" />
        <Node type="out" id="10" fnId="0" />
        <Node type="out" id="11" fnId="0" />
        <Node type="out" id="12" fnId="0" />
        <Node type="out" id="13" fnId="0" />
      </Nodes>
      <Connections>
        <Con id="22" src="1" tgt="10" wght="3.8806719239801168" />
        <Con id="43" src="4" tgt="13" wght="4.5092729292809963" />
        <Con id="62" src="0" tgt="10" wght="3.6318536195904016" />
        <Con id="63" src="5" tgt="10" wght="-2.762882518582046" />
        <Con id="64" src="5" tgt="13" wght="-2.762882518582046" />
        <Con id="65" src="6" tgt="10" wght="-2.762882518582046" />
        <Con id="66" src="6" tgt="13" wght="-2.762882518582046" />
        <Con id="67" src="5" tgt="8" wght="3.4567613853141665" />
        <Con id="68" src="6" tgt="8" wght="4.4547333009541035" />
      </Connections>
    </Network>
    <Network id="16" birthGen="0" fitness="0">
      <Nodes>
        <Node type="bias" id="0" fnId="0" />
        <Node type="in" id="1" fnId="0" />
        <Node type="in" id="2" fnId="0" />
        <Node type="in" id="3" fnId="0" />
        <Node type="in" id="4" fnId="0" />
        <Node type="in" id="5" fnId="0" />
        <Node type="in" id="6" fnId="0" />
        <Node type="in" id="7" fnId="0" />
        <Node type="out" id="8" fnId="0" />
        <Node type="out" id="9" fnId="0" />
        <Node type="out" id="10" fnId="0" />
        <Node type="out" id="11" fnId="0" />
        <Node type="out" id="12" fnId="0" />
        <Node type="out" id="13" fnId="0" />
      </Nodes>
      <Connections>
        <Con id="25" src="1" tgt="13" wght="3.5092520155012608" />
        <Con id="48" src="5" tgt="12" wght="0.68100790493190289" />
        <Con id="62" src="0" tgt="10" wght="3.4918168606236577" />
        <Con id="63" src="5" tgt="10" wght="-1.2642035540193319" />
        <Con id="64" src="5" tgt="13" wght="-1.2642035540193319" />
        <Con id="65" src="6" tgt="10" wght="-1.2642035540193319" />
        <Con id="66" src="6" tgt="13" wght="-1.2642035540193319" />
        <Con id="67" src="5" tgt="8" wght="4.0250151278451085" />
        <Con id="68" src="6" tgt="8" wght="1.6383692109957337" />
      </Connections>
    </Network>
    <Network id="17" birthGen="0" fitness="0">
      <Nodes>
        <Node type="bias" id="0" fnId="0" />
        <Node type="in" id="1" fnId="0" />
        <Node type="in" id="2" fnId="0" />
        <Node type="in" id="3" fnId="0" />
        <Node type="in" id="4" fnId="0" />
        <Node type="in" id="5" fnId="0" />
        <Node type="in" id="6" fnId="0" />
        <Node type="in" id="7" fnId="0" />
        <Node type="out" id="8" fnId="0" />
        <Node type="out" id="9" fnId="0" />
        <Node type="out" id="10" fnId="0" />
        <Node type="out" id="11" fnId="0" />
        <Node type="out" id="12" fnId="0" />
        <Node type="out" id="13" fnId="0" />
      </Nodes>
      <Connections>
        <Con id="23" src="1" tgt="11" wght="-3.4079995006322861" />
        <Con id="32" src="3" tgt="8" wght="-4.9357181414961815" />
        <Con id="62" src="0" tgt="10" wght="0.44549298938363791" />
        <Con id="63" src="5" tgt="10" wght="-3.2862298749387264" />
        <Con id="64" src="5" tgt="13" wght="-3.2862298749387264" />
        <Con id="65" src="6" tgt="10" wght="-3.2862298749387264" />
        <Con id="66" src="6" tgt="13" wght="-3.2862298749387264" />
        <Con id="67" src="5" tgt="8" wght="1.7301404848694801" />
        <Con id="68" src="6" tgt="8" wght="1.2000575801357627" />
      </Connections>
    </Network>
    <Network id="18" birthGen="0" fitness="0">
      <Nodes>
        <Node type="bias" id="0" fnId="0" />
        <Node type="in" id="1" fnId="0" />
        <Node type="in" id="2" fnId="0" />
        <Node type="in" id="3" fnId="0" />
        <Node type="in" id="4" fnId="0" />
        <Node type="in" id="5" fnId="0" />
        <Node type="in" id="6" fnId="0" />
        <Node type="in" id="7" fnId="0" />
        <Node type="out" id="8" fnId="0" />
        <Node type="out" id="9" fnId="0" />
        <Node type="out" id="10" fnId="0" />
        <Node type="out" id="11" fnId="0" />
        <Node type="out" id="12" fnId="0" />
        <Node type="out" id="13" fnId="0" />
      </Nodes>
      <Connections>
        <Con id="27" src="2" tgt="9" wght="-4.8965624952688813" />
        <Con id="30" src="2" tgt="12" wght="1.8021302996203303" />
        <Con id="60" src="7" tgt="12" wght="-1.1468431400135159" />
        <Con id="62" src="0" tgt="10" wght="4.9191584624350071" />
        <Con id="63" src="5" tgt="10" wght="-3.5533636016771197" />
        <Con id="64" src="5" tgt="13" wght="-3.5533636016771197" />
        <Con id="65" src="6" tgt="10" wght="-3.5533636016771197" />
        <Con id="66" src="6" tgt="13" wght="-3.5533636016771197" />
        <Con id="67" src="5" tgt="8" wght="1.4406165201216936" />
        <Con id="68" src="6" tgt="8" wght="4.3489652872085571" />
      </Connections>
    </Network>
    <Network id="19" birthGen="0" fitness="0">
      <Nodes>
        <Node type="bias" id="0" fnId="0" />
        <Node type="in" id="1" fnId="0" />
        <Node type="in" id="2" fnId="0" />
        <Node type="in" id="3" fnId="0" />
        <Node type="in" id="4" fnId="0" />
        <Node type="in" id="5" fnId="0" />
        <Node type="in" id="6" fnId="0" />
        <Node type="in" id="7" fnId="0" />
        <Node type="out" id="8" fnId="0" />
        <Node type="out" id="9" fnId="0" />
        <Node type="out" id="10" fnId="0" />
        <Node type="out" id="11" fnId="0" />
        <Node type="out" id="12" fnId="0" />
        <Node type="out" id="13" fnId="0" />
      </Nodes>
      <Connections>
        <Con id="22" src="1" tgt="10" wght="-2.5789631344377995" />
        <Con id="41" src="4" tgt="11" wght="-2.877226141281426" />
        <Con id="62" src="0" tgt="10" wght="2.5817323802039027" />
        <Con id="63" src="5" tgt="10" wght="-3.7642474891617894" />
        <Con id="64" src="5" tgt="13" wght="-3.7642474891617894" />
        <Con id="65" src="6" tgt="10" wght="-3.7642474891617894" />
        <Con id="66" src="6" tgt="13" wght="-3.7642474891617894" />
        <Con id="67" src="5" tgt="8" wght="0.85229755844920874" />
        <Con id="68" src="6" tgt="8" wght="2.1438572788611054" />
      </Connections>
    </Network>
    <Network id="20" birthGen="0" fitness="0">
      <Nodes>
        <Node type="bias" id="0" fnId="0" />
        <Node type="in" id="1" fnId="0" />
        <Node type="in" id="2" fnId="0" />
        <Node type="in" id="3" fnId="0" />
        <Node type="in" id="4" fnId="0" />
        <Node type="in" id="5" fnId="0" />
        <Node type="in" id="6" fnId="0" />
        <Node type="in" id="7" fnId="0" />
        <Node type="out" id="8" fnId="0" />
        <Node type="out" id="9" fnId="0" />
        <Node type="out" id="10" fnId="0" />
        <Node type="out" id="11" fnId="0" />
        <Node type="out" id="12" fnId="0" />
        <Node type="out" id="13" fnId="0" />
      </Nodes>
      <Connections>
        <Con id="22" src="1" tgt="10" wght="-4.42807296756655" />
        <Con id="34" src="3" tgt="10" wght="3.9797583594918251" />
        <Con id="37" src="3" tgt="13" wght="0.051792357116937637" />
        <Con id="62" src="0" tgt="10" wght="4.715013736858964" />
        <Con id="63" src="5" tgt="10" wght="-3.245673319324851" />
        <Con id="64" src="5" tgt="13" wght="-3.245673319324851" />
        <Con id="65" src="6" tgt="10" wght="-3.245673319324851" />
        <Con id="66" src="6" tgt="13" wght="-3.245673319324851" />
        <Con id="67" src="5" tgt="8" wght="3.4635701728984714" />
        <Con id="68" src="6" tgt="8" wght="2.4433622183278203" />
      </Connections>
    </Network>
    <Network id="21" birthGen="0" fitness="0">
      <Nodes>
        <Node type="bias" id="0" fnId="0" />
        <Node type="in" id="1" fnId="0" />
        <Node type="in" id="2" fnId="0" />
        <Node type="in" id="3" fnId="0" />
        <Node type="in" id="4" fnId="0" />
        <Node type="in" id="5" fnId="0" />
        <Node type="in" id="6" fnId="0" />
        <Node type="in" id="7" fnId="0" />
        <Node type="out" id="8" fnId="0" />
        <Node type="out" id="9" fnId="0" />
        <Node type="out" id="10" fnId="0" />
        <Node type="out" id="11" fnId="0" />
        <Node type="out" id="12" fnId="0" />
        <Node type="out" id="13" fnId="0" />
      </Nodes>
      <Connections>
        <Con id="26" src="2" tgt="8" wght="-4.9881944805383682" />
        <Con id="35" src="3" tgt="11" wght="2.3495231755077839" />
        <Con id="62" src="0" tgt="10" wght="3.5662280395627022" />
        <Con id="63" src="5" tgt="10" wght="-4.08180661033839" />
        <Con id="64" src="5" tgt="13" wght="-4.08180661033839" />
        <Con id="65" src="6" tgt="10" wght="-4.08180661033839" />
        <Con id="66" src="6" tgt="13" wght="-4.08180661033839" />
        <Con id="67" src="5" tgt="8" wght="1.3183655682951212" />
        <Con id="68" src="6" tgt="8" wght="0.29523223172873259" />
      </Connections>
    </Network>
    <Network id="22" birthGen="0" fitness="0">
      <Nodes>
        <Node type="bias" id="0" fnId="0" />
        <Node type="in" id="1" fnId="0" />
        <Node type="in" id="2" fnId="0" />
        <Node type="in" id="3" fnId="0" />
        <Node type="in" id="4" fnId="0" />
        <Node type="in" id="5" fnId="0" />
        <Node type="in" id="6" fnId="0" />
        <Node type="in" id="7" fnId="0" />
        <Node type="out" id="8" fnId="0" />
        <Node type="out" id="9" fnId="0" />
        <Node type="out" id="10" fnId="0" />
        <Node type="out" id="11" fnId="0" />
        <Node type="out" id="12" fnId="0" />
        <Node type="out" id="13" fnId="0" />
      </Nodes>
      <Connections>
        <Con id="34" src="3" tgt="10" wght="-0.40367164649069309" />
        <Con id="62" src="0" tgt="10" wght="0.11622285936027765" />
        <Con id="63" src="5" tgt="10" wght="-1.6421289043501019" />
        <Con id="64" src="5" tgt="13" wght="-1.6421289043501019" />
        <Con id="65" src="6" tgt="10" wght="-1.6421289043501019" />
        <Con id="66" src="6" tgt="13" wght="-1.6421289043501019" />
        <Con id="67" src="5" tgt="8" wght="0.32372478395700455" />
        <Con id="68" src="6" tgt="8" wght="3.7214054400101304" />
      </Connections>
    </Network>
    <Network id="23" birthGen="0" fitness="0">
      <Nodes>
        <Node type="bias" id="0" fnId="0" />
        <Node type="in" id="1" fnId="0" />
        <Node type="in" id="2" fnId="0" />
        <Node type="in" id="3" fnId="0" />
        <Node type="in" id="4" fnId="0" />
        <Node type="in" id="5" fnId="0" />
        <Node type="in" id="6" fnId="0" />
        <Node type="in" id="7" fnId="0" />
        <Node type="out" id="8" fnId="0" />
        <Node type="out" id="9" fnId="0" />
        <Node type="out" id="10" fnId="0" />
        <Node type="out" id="11" fnId="0" />
        <Node type="out" id="12" fnId="0" />
        <Node type="out" id="13" fnId="0" />
      </Nodes>
      <Connections>
        <Con id="22" src="1" tgt="10" wght="-3.5149850882589817" />
        <Con id="33" src="3" tgt="9" wght="4.6986620454117656" />
        <Con id="62" src="0" tgt="10" wght="3.5052012884989381" />
        <Con id="63" src="5" tgt="10" wght="-4.5028083864599466" />
        <Con id="64" src="5" tgt="13" wght="-4.5028083864599466" />
        <Con id="65" src="6" tgt="10" wght="-4.5028083864599466" />
        <Con id="66" src="6" tgt="13" wght="-4.5028083864599466" />
        <Con id="67" src="5" tgt="8" wght="3.5934290569275618" />
        <Con id="68" src="6" tgt="8" wght="4.9037184799090028" />
      </Connections>
    </Network>
    <Network id="24" birthGen="0" fitness="0">
      <Nodes>
        <Node type="bias" id="0" fnId="0" />
        <Node type="in" id="1" fnId="0" />
        <Node type="in" id="2" fnId="0" />
        <Node type="in" id="3" fnId="0" />
        <Node type="in" id="4" fnId="0" />
        <Node type="in" id="5" fnId="0" />
        <Node type="in" id="6" fnId="0" />
        <Node type="in" id="7" fnId="0" />
        <Node type="out" id="8" fnId="0" />
        <Node type="out" id="9" fnId="0" />
        <Node type="out" id="10" fnId="0" />
        <Node type="out" id="11" fnId="0" />
        <Node type="out" id="12" fnId="0" />
        <Node type="out" id="13" fnId="0" />
      </Nodes>
      <Connections>
        <Con id="26" src="2" tgt="8" wght="-0.29895255342125893" />
        <Con id="35" src="3" tgt="11" wght="1.1902768677100539" />
        <Con id="62" src="0" tgt="10" wght="3.7599526764824986" />
        <Con id="63" src="5" tgt="10" wght="-4.8394230846315622" />
        <Con id="64" src="5" tgt="13" wght="-4.8394230846315622" />
        <Con id="65" src="6" tgt="10" wght="-4.8394230846315622" />
        <Con id="66" src="6" tgt="13" wght="-4.8394230846315622" />
        <Con id="67" src="5" tgt="8" wght="1.82903703302145" />
        <Con id="68" src="6" tgt="8" wght="0.3468789579346776" />
      </Connections>
    </Network>
    <Network id="25" birthGen="0" fitness="0">
      <Nodes>
        <Node type="bias" id="0" fnId="0" />
        <Node type="in" id="1" fnId="0" />
        <Node type="in" id="2" fnId="0" />
        <Node type="in" id="3" fnId="0" />
        <Node type="in" id="4" fnId="0" />
        <Node type="in" id="5" fnId="0" />
        <Node type="in" id="6" fnId="0" />
        <Node type="in" id="7" fnId="0" />
        <Node type="out" id="8" fnId="0" />
        <Node type="out" id="9" fnId="0" />
        <Node type="out" id="10" fnId="0" />
        <Node type="out" id="11" fnId="0" />
        <Node type="out" id="12" fnId="0" />
        <Node type="out" id="13" fnId="0" />
      </Nodes>
      <Connections>
        <Con id="20" src="1" tgt="8" wght="4.556180820800364" />
        <Con id="31" src="2" tgt="13" wght="2.0926601393148303" />
        <Con id="62" src="0" tgt="10" wght="2.575797913596034" />
        <Con id="63" src="5" tgt="10" wght="-0.63236774876713753" />
        <Con id="64" src="5" tgt="13" wght="-0.63236774876713753" />
        <Con id="65" src="6" tgt="10" wght="-0.63236774876713753" />
        <Con id="66" src="6" tgt="13" wght="-0.63236774876713753" />
        <Con id="67" src="5" tgt="8" wght="0.37980625405907631" />
        <Con id="68" src="6" tgt="8" wght="1.3872971385717392" />
      </Connections>
    </Network>
    <Network id="26" birthGen="0" fitness="0">
      <Nodes>
        <Node type="bias" id="0" fnId="0" />
        <Node type="in" id="1" fnId="0" />
        <Node type="in" id="2" fnId="0" />
        <Node type="in" id="3" fnId="0" />
        <Node type="in" id="4" fnId="0" />
        <Node type="in" id="5" fnId="0" />
        <Node type="in" id="6" fnId="0" />
        <Node type="in" id="7" fnId="0" />
        <Node type="out" id="8" fnId="0" />
        <Node type="out" id="9" fnId="0" />
        <Node type="out" id="10" fnId="0" />
        <Node type="out" id="11" fnId="0" />
        <Node type="out" id="12" fnId="0" />
        <Node type="out" id="13" fnId="0" />
      </Nodes>
      <Connections>
        <Con id="18" src="0" tgt="12" wght="-1.5328560024499893" />
        <Con id="24" src="1" tgt="12" wght="-2.2897686390206218" />
        <Con id="62" src="0" tgt="10" wght="3.4844384668394923" />
        <Con id="63" src="5" tgt="10" wght="-2.4445183807983994" />
        <Con id="64" src="5" tgt="13" wght="-2.4445183807983994" />
        <Con id="65" src="6" tgt="10" wght="-2.4445183807983994" />
        <Con id="66" src="6" tgt="13" wght="-2.4445183807983994" />
        <Con id="67" src="5" tgt="8" wght="0.29385296627879143" />
        <Con id="68" src="6" tgt="8" wght="4.9226624937728047" />
      </Connections>
    </Network>
    <Network id="27" birthGen="0" fitness="0">
      <Nodes>
        <Node type="bias" id="0" fnId="0" />
        <Node type="in" id="1" fnId="0" />
        <Node type="in" id="2" fnId="0" />
        <Node type="in" id="3" fnId="0" />
        <Node type="in" id="4" fnId="0" />
        <Node type="in" id="5" fnId="0" />
        <Node type="in" id="6" fnId="0" />
        <Node type="in" id="7" fnId="0" />
        <Node type="out" id="8" fnId="0" />
        <Node type="out" id="9" fnId="0" />
        <Node type="out" id="10" fnId="0" />
        <Node type="out" id="11" fnId="0" />
        <Node type="out" id="12" fnId="0" />
        <Node type="out" id="13" fnId="0" />
      </Nodes>
      <Connections>
        <Con id="57" src="7" tgt="9" wght="1.1316282255575061" />
        <Con id="61" src="7" tgt="13" wght="4.4390353979542851" />
        <Con id="62" src="0" tgt="10" wght="1.0612570960074663" />
        <Con id="63" src="5" tgt="10" wght="-1.8840990262106061" />
        <Con id="64" src="5" tgt="13" wght="-1.8840990262106061" />
        <Con id="65" src="6" tgt="10" wght="-1.8840990262106061" />
        <Con id="66" src="6" tgt="13" wght="-1.8840990262106061" />
        <Con id="67" src="5" tgt="8" wght="2.8738522250205278" />
        <Con id="68" src="6" tgt="8" wght="1.3085940293967724" />
      </Connections>
    </Network>
    <Network id="28" birthGen="0" fitness="0">
      <Nodes>
        <Node type="bias" id="0" fnId="0" />
        <Node type="in" id="1" fnId="0" />
        <Node type="in" id="2" fnId="0" />
        <Node type="in" id="3" fnId="0" />
        <Node type="in" id="4" fnId="0" />
        <Node type="in" id="5" fnId="0" />
        <Node type="in" id="6" fnId="0" />
        <Node type="in" id="7" fnId="0" />
        <Node type="out" id="8" fnId="0" />
        <Node type="out" id="9" fnId="0" />
        <Node type="out" id="10" fnId="0" />
        <Node type="out" id="11" fnId="0" />
        <Node type="out" id="12" fnId="0" />
        <Node type="out" id="13" fnId="0" />
      </Nodes>
      <Connections>
        <Con id="27" src="2" tgt="9" wght="-2.95784717425704" />
        <Con id="32" src="3" tgt="8" wght="-3.9303951850160956" />
        <Con id="62" src="0" tgt="10" wght="0.41071239858865738" />
        <Con id="63" src="5" tgt="10" wght="-1.0532759968191385" />
        <Con id="64" src="5" tgt="13" wght="-1.0532759968191385" />
        <Con id="65" src="6" tgt="10" wght="-1.0532759968191385" />
        <Con id="66" src="6" tgt="13" wght="-1.0532759968191385" />
        <Con id="67" src="5" tgt="8" wght="2.5132561894133687" />
        <Con id="68" src="6" tgt="8" wght="1.3470325293019414" />
      </Connections>
    </Network>
    <Network id="29" birthGen="0" fitness="0">
      <Nodes>
        <Node type="bias" id="0" fnId="0" />
        <Node type="in" id="1" fnId="0" />
        <Node type="in" id="2" fnId="0" />
        <Node type="in" id="3" fnId="0" />
        <Node type="in" id="4" fnId="0" />
        <Node type="in" id="5" fnId="0" />
        <Node type="in" id="6" fnId="0" />
        <Node type="in" id="7" fnId="0" />
        <Node type="out" id="8" fnId="0" />
        <Node type="out" id="9" fnId="0" />
        <Node type="out" id="10" fnId="0" />
        <Node type="out" id="11" fnId="0" />
        <Node type="out" id="12" fnId="0" />
        <Node type="out" id="13" fnId="0" />
      </Nodes>
      <Connections>
        <Con id="24" src="1" tgt="12" wght="-3.4491207730025053" />
        <Con id="58" src="7" tgt="10" wght="1.5836653904989362" />
        <Con id="62" src="0" tgt="10" wght="2.5662978179752827" />
        <Con id="63" src="5" tgt="10" wght="-4.969300851225853" />
        <Con id="64" src="5" tgt="13" wght="-4.969300851225853" />
        <Con id="65" src="6" tgt="10" wght="-4.969300851225853" />
        <Con id="66" src="6" tgt="13" wght="-4.969300851225853" />
        <Con id="67" src="5" tgt="8" wght="4.8790572071447968" />
        <Con id="68" src="6" tgt="8" wght="0.44040443375706673" />
      </Connections>
    </Network>
    <Network id="30" birthGen="0" fitness="0">
      <Nodes>
        <Node type="bias" id="0" fnId="0" />
        <Node type="in" id="1" fnId="0" />
        <Node type="in" id="2" fnId="0" />
        <Node type="in" id="3" fnId="0" />
        <Node type="in" id="4" fnId="0" />
        <Node type="in" id="5" fnId="0" />
        <Node type="in" id="6" fnId="0" />
        <Node type="in" id="7" fnId="0" />
        <Node type="out" id="8" fnId="0" />
        <Node type="out" id="9" fnId="0" />
        <Node type="out" id="10" fnId="0" />
        <Node type="out" id="11" fnId="0" />
        <Node type="out" id="12" fnId="0" />
        <Node type="out" id="13" fnId="0" />
      </Nodes>
      <Connections>
        <Con id="29" src="2" tgt="11" wght="0.9693946922197938" />
        <Con id="54" src="6" tgt="12" wght="4.238179624080658" />
        <Con id="62" src="0" tgt="10" wght="0.57480336166918278" />
        <Con id="63" src="5" tgt="10" wght="-4.271418945863843" />
        <Con id="64" src="5" tgt="13" wght="-4.271418945863843" />
        <Con id="65" src="6" tgt="10" wght="-4.271418945863843" />
        <Con id="66" src="6" tgt="13" wght="-4.271418945863843" />
        <Con id="67" src="5" tgt="8" wght="2.9130994016304612" />
        <Con id="68" src="6" tgt="8" wght="1.8385008815675974" />
      </Connections>
    </Network>
    <Network id="31" birthGen="0" fitness="0">
      <Nodes>
        <Node type="bias" id="0" fnId="0" />
        <Node type="in" id="1" fnId="0" />
        <Node type="in" id="2" fnId="0" />
        <Node type="in" id="3" fnId="0" />
        <Node type="in" id="4" fnId="0" />
        <Node type="in" id="5" fnId="0" />
        <Node type="in" id="6" fnId="0" />
        <Node type="in" id="7" fnId="0" />
        <Node type="out" id="8" fnId="0" />
        <Node type="out" id="9" fnId="0" />
        <Node type="out" id="10" fnId="0" />
        <Node type="out" id="11" fnId="0" />
        <Node type="out" id="12" fnId="0" />
        <Node type="out" id="13" fnId="0" />
      </Nodes>
      <Connections>
        <Con id="29" src="2" tgt="11" wght="-4.8087516287341714" />
        <Con id="57" src="7" tgt="9" wght="-2.6423429092392325" />
        <Con id="61" src="7" tgt="13" wght="-1.5058329282328486" />
        <Con id="62" src="0" tgt="10" wght="4.366334923543036" />
        <Con id="63" src="5" tgt="10" wght="-0.81515455152839422" />
        <Con id="64" src="5" tgt="13" wght="-0.81515455152839422" />
        <Con id="65" src="6" tgt="10" wght="-0.81515455152839422" />
        <Con id="66" src="6" tgt="13" wght="-0.81515455152839422" />
        <Con id="67" src="5" tgt="8" wght="2.9001373471692204" />
        <Con id="68" src="6" tgt="8" wght="0.578806190751493" />
      </Connections>
    </Network>
    <Network id="32" birthGen="0" fitness="0">
      <Nodes>
        <Node type="bias" id="0" fnId="0" />
        <Node type="in" id="1" fnId="0" />
        <Node type="in" id="2" fnId="0" />
        <Node type="in" id="3" fnId="0" />
        <Node type="in" id="4" fnId="0" />
        <Node type="in" id="5" fnId="0" />
        <Node type="in" id="6" fnId="0" />
        <Node type="in" id="7" fnId="0" />
        <Node type="out" id="8" fnId="0" />
        <Node type="out" id="9" fnId="0" />
        <Node type="out" id="10" fnId="0" />
        <Node type="out" id="11" fnId="0" />
        <Node type="out" id="12" fnId="0" />
        <Node type="out" id="13" fnId="0" />
      </Nodes>
      <Connections>
        <Con id="35" src="3" tgt="11" wght="-1.5295798238366842" />
        <Con id="37" src="3" tgt="13" wght="-0.067734359763562679" />
        <Con id="62" src="0" tgt="10" wght="1.5661472454667091" />
        <Con id="63" src="5" tgt="10" wght="-0.955786919221282" />
        <Con id="64" src="5" tgt="13" wght="-0.955786919221282" />
        <Con id="65" src="6" tgt="10" wght="-0.955786919221282" />
        <Con id="66" src="6" tgt="13" wght="-0.955786919221282" />
        <Con id="67" src="5" tgt="8" wght="3.2089695893228054" />
        <Con id="68" src="6" tgt="8" wght="1.91665630787611" />
      </Connections>
    </Network>
    <Network id="33" birthGen="0" fitness="0">
      <Nodes>
        <Node type="bias" id="0" fnId="0" />
        <Node type="in" id="1" fnId="0" />
        <Node type="in" id="2" fnId="0" />
        <Node type="in" id="3" fnId="0" />
        <Node type="in" id="4" fnId="0" />
        <Node type="in" id="5" fnId="0" />
        <Node type="in" id="6" fnId="0" />
        <Node type="in" id="7" fnId="0" />
        <Node type="out" id="8" fnId="0" />
        <Node type="out" id="9" fnId="0" />
        <Node type="out" id="10" fnId="0" />
        <Node type="out" id="11" fnId="0" />
        <Node type="out" id="12" fnId="0" />
        <Node type="out" id="13" fnId="0" />
      </Nodes>
      <Connections>
        <Con id="38" src="4" tgt="8" wght="-1.2241513608023524" />
        <Con id="54" src="6" tgt="12" wght="0.6293997447937727" />
        <Con id="61" src="7" tgt="13" wght="-2.7256694808602333" />
        <Con id="62" src="0" tgt="10" wght="4.3512929370626807" />
        <Con id="63" src="5" tgt="10" wght="-2.1431749453768134" />
        <Con id="64" src="5" tgt="13" wght="-2.1431749453768134" />
        <Con id="65" src="6" tgt="10" wght="-2.1431749453768134" />
        <Con id="66" src="6" tgt="13" wght="-2.1431749453768134" />
        <Con id="67" src="5" tgt="8" wght="1.3868724787607789" />
        <Con id="68" src="6" tgt="8" wght="1.6440702322870493" />
      </Connections>
    </Network>
    <Network id="34" birthGen="0" fitness="0">
      <Nodes>
        <Node type="bias" id="0" fnId="0" />
        <Node type="in" id="1" fnId="0" />
        <Node type="in" id="2" fnId="0" />
        <Node type="in" id="3" fnId="0" />
        <Node type="in" id="4" fnId="0" />
        <Node type="in" id="5" fnId="0" />
        <Node type="in" id="6" fnId="0" />
        <Node type="in" id="7" fnId="0" />
        <Node type="out" id="8" fnId="0" />
        <Node type="out" id="9" fnId="0" />
        <Node type="out" id="10" fnId="0" />
        <Node type="out" id="11" fnId="0" />
        <Node type="out" id="12" fnId="0" />
        <Node type="out" id="13" fnId="0" />
      </Nodes>
      <Connections>
        <Con id="47" src="5" tgt="11" wght="-2.4311611708253622" />
        <Con id="61" src="7" tgt="13" wght="-4.7116285050287843" />
        <Con id="62" src="0" tgt="10" wght="4.2120451433584094" />
        <Con id="63" src="5" tgt="10" wght="-0.42987232096493244" />
        <Con id="64" src="5" tgt="13" wght="-0.42987232096493244" />
        <Con id="65" src="6" tgt="10" wght="-0.42987232096493244" />
        <Con id="66" src="6" tgt="13" wght="-0.42987232096493244" />
        <Con id="67" src="5" tgt="8" wght="4.4273129012435675" />
        <Con id="68" src="6" tgt="8" wght="0.35513324663043022" />
      </Connections>
    </Network>
    <Network id="35" birthGen="0" fitness="0">
      <Nodes>
        <Node type="bias" id="0" fnId="0" />
        <Node type="in" id="1" fnId="0" />
        <Node type="in" id="2" fnId="0" />
        <Node type="in" id="3" fnId="0" />
        <Node type="in" id="4" fnId="0" />
        <Node type="in" id="5" fnId="0" />
        <Node type="in" id="6" fnId="0" />
        <Node type="in" id="7" fnId="0" />
        <Node type="out" id="8" fnId="0" />
        <Node type="out" id="9" fnId="0" />
        <Node type="out" id="10" fnId="0" />
        <Node type="out" id="11" fnId="0" />
        <Node type="out" id="12" fnId="0" />
        <Node type="out" id="13" fnId="0" />
      </Nodes>
      <Connections>
        <Con id="60" src="7" tgt="12" wght="1.11054384149611" />
        <Con id="62" src="0" tgt="10" wght="3.3818539837375283" />
        <Con id="63" src="5" tgt="10" wght="-0.47224155627191067" />
        <Con id="64" src="5" tgt="13" wght="-0.47224155627191067" />
        <Con id="65" src="6" tgt="10" wght="-0.47224155627191067" />
        <Con id="66" src="6" tgt="13" wght="-0.47224155627191067" />
        <Con id="67" src="5" tgt="8" wght="1.4152194885537028" />
        <Con id="68" src="6" tgt="8" wght="3.1339570740237832" />
      </Connections>
    </Network>
    <Network id="36" birthGen="0" fitness="0">
      <Nodes>
        <Node type="bias" id="0" fnId="0" />
        <Node type="in" id="1" fnId="0" />
        <Node type="in" id="2" fnId="0" />
        <Node type="in" id="3" fnId="0" />
        <Node type="in" id="4" fnId="0" />
        <Node type="in" id="5" fnId="0" />
        <Node type="in" id="6" fnId="0" />
        <Node type="in" id="7" fnId="0" />
        <Node type="out" id="8" fnId="0" />
        <Node type="out" id="9" fnId="0" />
        <Node type="out" id="10" fnId="0" />
        <Node type="out" id="11" fnId="0" />
        <Node type="out" id="12" fnId="0" />
        <Node type="out" id="13" fnId="0" />
      </Nodes>
      <Connections>
        <Con id="27" src="2" tgt="9" wght="-2.6466327998787165" />
        <Con id="29" src="2" tgt="11" wght="4.5201684255152941" />
        <Con id="62" src="0" tgt="10" wght="0.94355756882578135" />
        <Con id="63" src="5" tgt="10" wght="-3.262286614626646" />
        <Con id="64" src="5" tgt="13" wght="-3.262286614626646" />
        <Con id="65" src="6" tgt="10" wght="-3.262286614626646" />
        <Con id="66" src="6" tgt="13" wght="-3.262286614626646" />
        <Con id="67" src="5" tgt="8" wght="4.271334889344871" />
        <Con id="68" src="6" tgt="8" wght="0.9439515694975853" />
      </Connections>
    </Network>
    <Network id="37" birthGen="0" fitness="0">
      <Nodes>
        <Node type="bias" id="0" fnId="0" />
        <Node type="in" id="1" fnId="0" />
        <Node type="in" id="2" fnId="0" />
        <Node type="in" id="3" fnId="0" />
        <Node type="in" id="4" fnId="0" />
        <Node type="in" id="5" fnId="0" />
        <Node type="in" id="6" fnId="0" />
        <Node type="in" id="7" fnId="0" />
        <Node type="out" id="8" fnId="0" />
        <Node type="out" id="9" fnId="0" />
        <Node type="out" id="10" fnId="0" />
        <Node type="out" id="11" fnId="0" />
        <Node type="out" id="12" fnId="0" />
        <Node type="out" id="13" fnId="0" />
      </Nodes>
      <Connections>
        <Con id="19" src="0" tgt="13" wght="0.32470315229147673" />
        <Con id="40" src="4" tgt="10" wght="3.1377245439216495" />
        <Con id="62" src="0" tgt="10" wght="3.4696287754923105" />
        <Con id="63" src="5" tgt="10" wght="-2.195883640088141" />
        <Con id="64" src="5" tgt="13" wght="-2.195883640088141" />
        <Con id="65" src="6" tgt="10" wght="-2.195883640088141" />
        <Con id="66" src="6" tgt="13" wght="-2.195883640088141" />
        <Con id="67" src="5" tgt="8" wght="3.601298937574029" />
        <Con id="68" src="6" tgt="8" wght="1.1603468703106046" />
      </Connections>
    </Network>
    <Network id="38" birthGen="0" fitness="0">
      <Nodes>
        <Node type="bias" id="0" fnId="0" />
        <Node type="in" id="1" fnId="0" />
        <Node type="in" id="2" fnId="0" />
        <Node type="in" id="3" fnId="0" />
        <Node type="in" id="4" fnId="0" />
        <Node type="in" id="5" fnId="0" />
        <Node type="in" id="6" fnId="0" />
        <Node type="in" id="7" fnId="0" />
        <Node type="out" id="8" fnId="0" />
        <Node type="out" id="9" fnId="0" />
        <Node type="out" id="10" fnId="0" />
        <Node type="out" id="11" fnId="0" />
        <Node type="out" id="12" fnId="0" />
        <Node type="out" id="13" fnId="0" />
      </Nodes>
      <Connections>
        <Con id="19" src="0" tgt="13" wght="2.1433698618784547" />
        <Con id="34" src="3" tgt="10" wght="4.1029378585517406" />
        <Con id="62" src="0" tgt="10" wght="2.5696249166503549" />
        <Con id="63" src="5" tgt="10" wght="-1.8552010785788298" />
        <Con id="64" src="5" tgt="13" wght="-1.8552010785788298" />
        <Con id="65" src="6" tgt="10" wght="-1.8552010785788298" />
        <Con id="66" src="6" tgt="13" wght="-1.8552010785788298" />
        <Con id="67" src="5" tgt="8" wght="0.19095045514404774" />
        <Con id="68" src="6" tgt="8" wght="0.85525238420814276" />
      </Connections>
    </Network>
    <Network id="39" birthGen="0" fitness="0">
      <Nodes>
        <Node type="bias" id="0" fnId="0" />
        <Node type="in" id="1" fnId="0" />
        <Node type="in" id="2" fnId="0" />
        <Node type="in" id="3" fnId="0" />
        <Node type="in" id="4" fnId="0" />
        <Node type="in" id="5" fnId="0" />
        <Node type="in" id="6" fnId="0" />
        <Node type="in" id="7" fnId="0" />
        <Node type="out" id="8" fnId="0" />
        <Node type="out" id="9" fnId="0" />
        <Node type="out" id="10" fnId="0" />
        <Node type="out" id="11" fnId="0" />
        <Node type="out" id="12" fnId="0" />
        <Node type="out" id="13" fnId="0" />
      </Nodes>
      <Connections>
        <Con id="19" src="0" tgt="13" wght="-1.5114088635891676" />
        <Con id="48" src="5" tgt="12" wght="4.92042685393244" />
        <Con id="62" src="0" tgt="10" wght="1.2725437013432384" />
        <Con id="63" src="5" tgt="10" wght="-0.79684222582727671" />
        <Con id="64" src="5" tgt="13" wght="-0.79684222582727671" />
        <Con id="65" src="6" tgt="10" wght="-0.79684222582727671" />
        <Con id="66" src="6" tgt="13" wght="-0.79684222582727671" />
        <Con id="67" src="5" tgt="8" wght="4.8325960850343108" />
        <Con id="68" src="6" tgt="8" wght="1.0521827917546034" />
      </Connections>
    </Network>
    <Network id="40" birthGen="0" fitness="0">
      <Nodes>
        <Node type="bias" id="0" fnId="0" />
        <Node type="in" id="1" fnId="0" />
        <Node type="in" id="2" fnId="0" />
        <Node type="in" id="3" fnId="0" />
        <Node type="in" id="4" fnId="0" />
        <Node type="in" id="5" fnId="0" />
        <Node type="in" id="6" fnId="0" />
        <Node type="in" id="7" fnId="0" />
        <Node type="out" id="8" fnId="0" />
        <Node type="out" id="9" fnId="0" />
        <Node type="out" id="10" fnId="0" />
        <Node type="out" id="11" fnId="0" />
        <Node type="out" id="12" fnId="0" />
        <Node type="out" id="13" fnId="0" />
      </Nodes>
      <Connections>
        <Con id="30" src="2" tgt="12" wght="4.6001563081517816" />
        <Con id="62" src="0" tgt="10" wght="2.2932752361521125" />
        <Con id="63" src="5" tgt="10" wght="-0.99176257383078337" />
        <Con id="64" src="5" tgt="13" wght="-0.99176257383078337" />
        <Con id="65" src="6" tgt="10" wght="-0.99176257383078337" />
        <Con id="66" src="6" tgt="13" wght="-0.99176257383078337" />
        <Con id="67" src="5" tgt="8" wght="4.0260147908702493" />
        <Con id="68" src="6" tgt="8" wght="4.05497670173645" />
      </Connections>
    </Network>
    <Network id="41" birthGen="0" fitness="0">
      <Nodes>
        <Node type="bias" id="0" fnId="0" />
        <Node type="in" id="1" fnId="0" />
        <Node type="in" id="2" fnId="0" />
        <Node type="in" id="3" fnId="0" />
        <Node type="in" id="4" fnId="0" />
        <Node type="in" id="5" fnId="0" />
        <Node type="in" id="6" fnId="0" />
        <Node type="in" id="7" fnId="0" />
        <Node type="out" id="8" fnId="0" />
        <Node type="out" id="9" fnId="0" />
        <Node type="out" id="10" fnId="0" />
        <Node type="out" id="11" fnId="0" />
        <Node type="out" id="12" fnId="0" />
        <Node type="out" id="13" fnId="0" />
      </Nodes>
      <Connections>
        <Con id="14" src="0" tgt="8" wght="3.3289941074326634" />
        <Con id="19" src="0" tgt="13" wght="2.4832496512681246" />
        <Con id="62" src="0" tgt="10" wght="4.6544878836721182" />
        <Con id="63" src="5" tgt="10" wght="-4.50976753141731" />
        <Con id="64" src="5" tgt="13" wght="-4.50976753141731" />
        <Con id="65" src="6" tgt="10" wght="-4.50976753141731" />
        <Con id="66" src="6" tgt="13" wght="-4.50976753141731" />
        <Con id="67" src="5" tgt="8" wght="0.41341301985085011" />
        <Con id="68" src="6" tgt="8" wght="3.793401075527072" />
      </Connections>
    </Network>
    <Network id="42" birthGen="0" fitness="0">
      <Nodes>
        <Node type="bias" id="0" fnId="0" />
        <Node type="in" id="1" fnId="0" />
        <Node type="in" id="2" fnId="0" />
        <Node type="in" id="3" fnId="0" />
        <Node type="in" id="4" fnId="0" />
        <Node type="in" id="5" fnId="0" />
        <Node type="in" id="6" fnId="0" />
        <Node type="in" id="7" fnId="0" />
        <Node type="out" id="8" fnId="0" />
        <Node type="out" id="9" fnId="0" />
        <Node type="out" id="10" fnId="0" />
        <Node type="out" id="11" fnId="0" />
        <Node type="out" id="12" fnId="0" />
        <Node type="out" id="13" fnId="0" />
      </Nodes>
      <Connections>
        <Con id="59" src="7" tgt="11" wght="4.9004592793062329" />
        <Con id="62" src="0" tgt="10" wght="1.5862972568720579" />
        <Con id="63" src="5" tgt="10" wght="-3.0430116038769484" />
        <Con id="64" src="5" tgt="13" wght="-3.0430116038769484" />
        <Con id="65" src="6" tgt="10" wght="-3.0430116038769484" />
        <Con id="66" src="6" tgt="13" wght="-3.0430116038769484" />
        <Con id="67" src="5" tgt="8" wght="3.156886026263237" />
        <Con id="68" src="6" tgt="8" wght="0.3988738963380456" />
      </Connections>
    </Network>
    <Network id="43" birthGen="0" fitness="0">
      <Nodes>
        <Node type="bias" id="0" fnId="0" />
        <Node type="in" id="1" fnId="0" />
        <Node type="in" id="2" fnId="0" />
        <Node type="in" id="3" fnId="0" />
        <Node type="in" id="4" fnId="0" />
        <Node type="in" id="5" fnId="0" />
        <Node type="in" id="6" fnId="0" />
        <Node type="in" id="7" fnId="0" />
        <Node type="out" id="8" fnId="0" />
        <Node type="out" id="9" fnId="0" />
        <Node type="out" id="10" fnId="0" />
        <Node type="out" id="11" fnId="0" />
        <Node type="out" id="12" fnId="0" />
        <Node type="out" id="13" fnId="0" />
      </Nodes>
      <Connections>
        <Con id="23" src="1" tgt="11" wght="2.4733498366549611" />
        <Con id="62" src="0" tgt="10" wght="2.1192440902814269" />
        <Con id="63" src="5" tgt="10" wght="-1.284331101924181" />
        <Con id="64" src="5" tgt="13" wght="-1.284331101924181" />
        <Con id="65" src="6" tgt="10" wght="-1.284331101924181" />
        <Con id="66" src="6" tgt="13" wght="-1.284331101924181" />
        <Con id="67" src="5" tgt="8" wght="0.58227287605404854" />
        <Con id="68" src="6" tgt="8" wght="3.9085119357332587" />
      </Connections>
    </Network>
    <Network id="44" birthGen="0" fitness="0">
      <Nodes>
        <Node type="bias" id="0" fnId="0" />
        <Node type="in" id="1" fnId="0" />
        <Node type="in" id="2" fnId="0" />
        <Node type="in" id="3" fnId="0" />
        <Node type="in" id="4" fnId="0" />
        <Node type="in" id="5" fnId="0" />
        <Node type="in" id="6" fnId="0" />
        <Node type="in" id="7" fnId="0" />
        <Node type="out" id="8" fnId="0" />
        <Node type="out" id="9" fnId="0" />
        <Node type="out" id="10" fnId="0" />
        <Node type="out" id="11" fnId="0" />
        <Node type="out" id="12" fnId="0" />
        <Node type="out" id="13" fnId="0" />
      </Nodes>
      <Connections>
        <Con id="62" src="0" tgt="10" wght="3.7285896483808756" />
        <Con id="63" src="5" tgt="10" wght="-4.2555440962314606" />
        <Con id="64" src="5" tgt="13" wght="-4.2555440962314606" />
        <Con id="65" src="6" tgt="10" wght="-4.2555440962314606" />
        <Con id="66" src="6" tgt="13" wght="-4.2555440962314606" />
        <Con id="67" src="5" tgt="8" wght="4.4069597730413079" />
        <Con id="68" src="6" tgt="8" wght="2.4644079012796283" />
      </Connections>
    </Network>
    <Network id="45" birthGen="0" fitness="0">
      <Nodes>
        <Node type="bias" id="0" fnId="0" />
        <Node type="in" id="1" fnId="0" />
        <Node type="in" id="2" fnId="0" />
        <Node type="in" id="3" fnId="0" />
        <Node type="in" id="4" fnId="0" />
        <Node type="in" id="5" fnId="0" />
        <Node type="in" id="6" fnId="0" />
        <Node type="in" id="7" fnId="0" />
        <Node type="out" id="8" fnId="0" />
        <Node type="out" id="9" fnId="0" />
        <Node type="out" id="10" fnId="0" />
        <Node type="out" id="11" fnId="0" />
        <Node type="out" id="12" fnId="0" />
        <Node type="out" id="13" fnId="0" />
      </Nodes>
      <Connections>
        <Con id="19" src="0" tgt="13" wght="1.9865362206473947" />
        <Con id="35" src="3" tgt="11" wght="1.4912496646866202" />
        <Con id="62" src="0" tgt="10" wght="3.3958075381815434" />
        <Con id="63" src="5" tgt="10" wght="-2.7579397149384022" />
        <Con id="64" src="5" tgt="13" wght="-2.7579397149384022" />
        <Con id="65" src="6" tgt="10" wght="-2.7579397149384022" />
        <Con id="66" src="6" tgt="13" wght="-2.7579397149384022" />
        <Con id="67" src="5" tgt="8" wght="2.7385200746357441" />
        <Con id="68" src="6" tgt="8" wght="4.2758397432044148" />
      </Connections>
    </Network>
    <Network id="46" birthGen="0" fitness="0">
      <Nodes>
        <Node type="bias" id="0" fnId="0" />
        <Node type="in" id="1" fnId="0" />
        <Node type="in" id="2" fnId="0" />
        <Node type="in" id="3" fnId="0" />
        <Node type="in" id="4" fnId="0" />
        <Node type="in" id="5" fnId="0" />
        <Node type="in" id="6" fnId="0" />
        <Node type="in" id="7" fnId="0" />
        <Node type="out" id="8" fnId="0" />
        <Node type="out" id="9" fnId="0" />
        <Node type="out" id="10" fnId="0" />
        <Node type="out" id="11" fnId="0" />
        <Node type="out" id="12" fnId="0" />
        <Node type="out" id="13" fnId="0" />
      </Nodes>
      <Connections>
        <Con id="30" src="2" tgt="12" wght="-2.1216763509437442" />
        <Con id="45" src="5" tgt="9" wght="3.3226120751351118" />
        <Con id="62" src="0" tgt="10" wght="1.7662731371819973" />
        <Con id="63" src="5" tgt="10" wght="-2.7702873339876533" />
        <Con id="64" src="5" tgt="13" wght="-2.7702873339876533" />
        <Con id="65" src="6" tgt="10" wght="-2.7702873339876533" />
        <Con id="66" src="6" tgt="13" wght="-2.7702873339876533" />
        <Con id="67" src="5" tgt="8" wght="2.44863492436707" />
        <Con id="68" src="6" tgt="8" wght="2.6456098956987262" />
      </Connections>
    </Network>
    <Network id="47" birthGen="0" fitness="0">
      <Nodes>
        <Node type="bias" id="0" fnId="0" />
        <Node type="in" id="1" fnId="0" />
        <Node type="in" id="2" fnId="0" />
        <Node type="in" id="3" fnId="0" />
        <Node type="in" id="4" fnId="0" />
        <Node type="in" id="5" fnId="0" />
        <Node type="in" id="6" fnId="0" />
        <Node type="in" id="7" fnId="0" />
        <Node type="out" id="8" fnId="0" />
        <Node type="out" id="9" fnId="0" />
        <Node type="out" id="10" fnId="0" />
        <Node type="out" id="11" fnId="0" />
        <Node type="out" id="12" fnId="0" />
        <Node type="out" id="13" fnId="0" />
      </Nodes>
      <Connections>
        <Con id="17" src="0" tgt="11" wght="0.44399222824722528" />
        <Con id="37" src="3" tgt="13" wght="4.1756923822686076" />
        <Con id="62" src="0" tgt="10" wght="2.2416518861427903" />
        <Con id="63" src="5" tgt="10" wght="-1.7177416337653995" />
        <Con id="64" src="5" tgt="13" wght="-1.7177416337653995" />
        <Con id="65" src="6" tgt="10" wght="-1.7177416337653995" />
        <Con id="66" src="6" tgt="13" wght="-1.7177416337653995" />
        <Con id="67" src="5" tgt="8" wght="3.9023308828473091" />
        <Con id="68" src="6" tgt="8" wght="2.2962817177176476" />
      </Connections>
    </Network>
    <Network id="48" birthGen="0" fitness="0">
      <Nodes>
        <Node type="bias" id="0" fnId="0" />
        <Node type="in" id="1" fnId="0" />
        <Node type="in" id="2" fnId="0" />
        <Node type="in" id="3" fnId="0" />
        <Node type="in" id="4" fnId="0" />
        <Node type="in" id="5" fnId="0" />
        <Node type="in" id="6" fnId="0" />
        <Node type="in" id="7" fnId="0" />
        <Node type="out" id="8" fnId="0" />
        <Node type="out" id="9" fnId="0" />
        <Node type="out" id="10" fnId="0" />
        <Node type="out" id="11" fnId="0" />
        <Node type="out" id="12" fnId="0" />
        <Node type="out" id="13" fnId="0" />
      </Nodes>
      <Connections>
        <Con id="23" src="1" tgt="11" wght="-4.29295243229717" />
        <Con id="62" src="0" tgt="10" wght="3.20694531314075" />
        <Con id="63" src="5" tgt="10" wght="-3.5962929949164391" />
        <Con id="64" src="5" tgt="13" wght="-3.5962929949164391" />
        <Con id="65" src="6" tgt="10" wght="-3.5962929949164391" />
        <Con id="66" src="6" tgt="13" wght="-3.5962929949164391" />
        <Con id="67" src="5" tgt="8" wght="2.8044733311980963" />
        <Con id="68" src="6" tgt="8" wght="4.6359914122149348" />
      </Connections>
    </Network>
    <Network id="49" birthGen="0" fitness="0">
      <Nodes>
        <Node type="bias" id="0" fnId="0" />
        <Node type="in" id="1" fnId="0" />
        <Node type="in" id="2" fnId="0" />
        <Node type="in" id="3" fnId="0" />
        <Node type="in" id="4" fnId="0" />
        <Node type="in" id="5" fnId="0" />
        <Node type="in" id="6" fnId="0" />
        <Node type="in" id="7" fnId="0" />
        <Node type="out" id="8" fnId="0" />
        <Node type="out" id="9" fnId="0" />
        <Node type="out" id="10" fnId="0" />
        <Node type="out" id="11" fnId="0" />
        <Node type="out" id="12" fnId="0" />
        <Node type="out" id="13" fnId="0" />
      </Nodes>
      <Connections>
        <Con id="34" src="3" tgt="10" wght="4.1126106958836317" />
        <Con id="35" src="3" tgt="11" wght="2.7020577155053616" />
        <Con id="62" src="0" tgt="10" wght="4.4444138137623668" />
        <Con id="63" src="5" tgt="10" wght="-2.3417422035709023" />
        <Con id="64" src="5" tgt="13" wght="-2.3417422035709023" />
        <Con id="65" src="6" tgt="10" wght="-2.3417422035709023" />
        <Con id="66" src="6" tgt="13" wght="-2.3417422035709023" />
        <Con id="67" src="5" tgt="8" wght="1.0446546413004398" />
        <Con id="68" src="6" tgt="8" wght="3.1639991141855717" />
      </Connections>
    </Network>
    <Network id="50" birthGen="0" fitness="0">
      <Nodes>
        <Node type="bias" id="0" fnId="0" />
        <Node type="in" id="1" fnId="0" />
        <Node type="in" id="2" fnId="0" />
        <Node type="in" id="3" fnId="0" />
        <Node type="in" id="4" fnId="0" />
        <Node type="in" id="5" fnId="0" />
        <Node type="in" id="6" fnId="0" />
        <Node type="in" id="7" fnId="0" />
        <Node type="out" id="8" fnId="0" />
        <Node type="out" id="9" fnId="0" />
        <Node type="out" id="10" fnId="0" />
        <Node type="out" id="11" fnId="0" />
        <Node type="out" id="12" fnId="0" />
        <Node type="out" id="13" fnId="0" />
      </Nodes>
      <Connections>
        <Con id="23" src="1" tgt="11" wght="-0.29862911440432072" />
        <Con id="48" src="5" tgt="12" wght="-1.7355454387143254" />
        <Con id="58" src="7" tgt="10" wght="-4.830200313590467" />
        <Con id="62" src="0" tgt="10" wght="0.63380371313542128" />
        <Con id="63" src="5" tgt="10" wght="-0.57541165966540575" />
        <Con id="64" src="5" tgt="13" wght="-0.57541165966540575" />
        <Con id="65" src="6" tgt="10" wght="-0.57541165966540575" />
        <Con id="66" src="6" tgt="13" wght="-0.57541165966540575" />
        <Con id="67" src="5" tgt="8" wght="0.385525356978178" />
        <Con id="68" src="6" tgt="8" wght="4.3987124878913164" />
      </Connections>
    </Network>
    <Network id="51" birthGen="0" fitness="0">
      <Nodes>
        <Node type="bias" id="0" fnId="0" />
        <Node type="in" id="1" fnId="0" />
        <Node type="in" id="2" fnId="0" />
        <Node type="in" id="3" fnId="0" />
        <Node type="in" id="4" fnId="0" />
        <Node type="in" id="5" fnId="0" />
        <Node type="in" id="6" fnId="0" />
        <Node type="in" id="7" fnId="0" />
        <Node type="out" id="8" fnId="0" />
        <Node type="out" id="9" fnId="0" />
        <Node type="out" id="10" fnId="0" />
        <Node type="out" id="11" fnId="0" />
        <Node type="out" id="12" fnId="0" />
        <Node type="out" id="13" fnId="0" />
      </Nodes>
      <Connections>
        <Con id="31" src="2" tgt="13" wght="-2.0304023241624236" />
        <Con id="57" src="7" tgt="9" wght="-3.1126805627718568" />
        <Con id="62" src="0" tgt="10" wght="4.8172237072139978" />
        <Con id="63" src="5" tgt="10" wght="-4.0897675370797515" />
        <Con id="64" src="5" tgt="13" wght="-4.0897675370797515" />
        <Con id="65" src="6" tgt="10" wght="-4.0897675370797515" />
        <Con id="66" src="6" tgt="13" wght="-4.0897675370797515" />
        <Con id="67" src="5" tgt="8" wght="3.3245749399065971" />
        <Con id="68" src="6" tgt="8" wght="1.4387986250221729" />
      </Connections>
    </Network>
    <Network id="52" birthGen="0" fitness="0">
      <Nodes>
        <Node type="bias" id="0" fnId="0" />
        <Node type="in" id="1" fnId="0" />
        <Node type="in" id="2" fnId="0" />
        <Node type="in" id="3" fnId="0" />
        <Node type="in" id="4" fnId="0" />
        <Node type="in" id="5" fnId="0" />
        <Node type="in" id="6" fnId="0" />
        <Node type="in" id="7" fnId="0" />
        <Node type="out" id="8" fnId="0" />
        <Node type="out" id="9" fnId="0" />
        <Node type="out" id="10" fnId="0" />
        <Node type="out" id="11" fnId="0" />
        <Node type="out" id="12" fnId="0" />
        <Node type="out" id="13" fnId="0" />
      </Nodes>
      <Connections>
        <Con id="15" src="0" tgt="9" wght="-2.1963264187797904" />
        <Con id="38" src="4" tgt="8" wght="4.771606083959341" />
        <Con id="42" src="4" tgt="12" wght="-1.3981566485017538" />
        <Con id="62" src="0" tgt="10" wght="1.0738178296014667" />
        <Con id="63" src="5" tgt="10" wght="-1.050543300807476" />
        <Con id="64" src="5" tgt="13" wght="-1.050543300807476" />
        <Con id="65" src="6" tgt="10" wght="-1.050543300807476" />
        <Con id="66" src="6" tgt="13" wght="-1.050543300807476" />
        <Con id="67" src="5" tgt="8" wght="0.97416115459054708" />
        <Con id="68" src="6" tgt="8" wght="0.46158496756106615" />
      </Connections>
    </Network>
    <Network id="53" birthGen="0" fitness="0">
      <Nodes>
        <Node type="bias" id="0" fnId="0" />
        <Node type="in" id="1" fnId="0" />
        <Node type="in" id="2" fnId="0" />
        <Node type="in" id="3" fnId="0" />
        <Node type="in" id="4" fnId="0" />
        <Node type="in" id="5" fnId="0" />
        <Node type="in" id="6" fnId="0" />
        <Node type="in" id="7" fnId="0" />
        <Node type="out" id="8" fnId="0" />
        <Node type="out" id="9" fnId="0" />
        <Node type="out" id="10" fnId="0" />
        <Node type="out" id="11" fnId="0" />
        <Node type="out" id="12" fnId="0" />
        <Node type="out" id="13" fnId="0" />
      </Nodes>
      <Connections>
        <Con id="24" src="1" tgt="12" wght="-2.33359987847507" />
        <Con id="35" src="3" tgt="11" wght="1.6394730564206839" />
        <Con id="40" src="4" tgt="10" wght="-3.367104372009635" />
        <Con id="62" src="0" tgt="10" wght="2.8750799316912889" />
        <Con id="63" src="5" tgt="10" wght="-3.3800281537696719" />
        <Con id="64" src="5" tgt="13" wght="-3.3800281537696719" />
        <Con id="65" src="6" tgt="10" wght="-3.3800281537696719" />
        <Con id="66" src="6" tgt="13" wght="-3.3800281537696719" />
        <Con id="67" src="5" tgt="8" wght="0.58050620835274458" />
        <Con id="68" src="6" tgt="8" wght="1.934606209397316" />
      </Connections>
    </Network>
    <Network id="54" birthGen="0" fitness="0">
      <Nodes>
        <Node type="bias" id="0" fnId="0" />
        <Node type="in" id="1" fnId="0" />
        <Node type="in" id="2" fnId="0" />
        <Node type="in" id="3" fnId="0" />
        <Node type="in" id="4" fnId="0" />
        <Node type="in" id="5" fnId="0" />
        <Node type="in" id="6" fnId="0" />
        <Node type="in" id="7" fnId="0" />
        <Node type="out" id="8" fnId="0" />
        <Node type="out" id="9" fnId="0" />
        <Node type="out" id="10" fnId="0" />
        <Node type="out" id="11" fnId="0" />
        <Node type="out" id="12" fnId="0" />
        <Node type="out" id="13" fnId="0" />
      </Nodes>
      <Connections>
        <Con id="38" src="4" tgt="8" wght="-4.4048760691657662" />
        <Con id="39" src="4" tgt="9" wght="1.176019748672843" />
        <Con id="62" src="0" tgt="10" wght="0.097855809144675732" />
        <Con id="63" src="5" tgt="10" wght="-2.3250427097082138" />
        <Con id="64" src="5" tgt="13" wght="-2.3250427097082138" />
        <Con id="65" src="6" tgt="10" wght="-2.3250427097082138" />
        <Con id="66" src="6" tgt="13" wght="-2.3250427097082138" />
        <Con id="67" src="5" tgt="8" wght="0.977313038893044" />
        <Con id="68" src="6" tgt="8" wght="4.1252502799034119" />
      </Connections>
    </Network>
    <Network id="55" birthGen="0" fitness="0">
      <Nodes>
        <Node type="bias" id="0" fnId="0" />
        <Node type="in" id="1" fnId="0" />
        <Node type="in" id="2" fnId="0" />
        <Node type="in" id="3" fnId="0" />
        <Node type="in" id="4" fnId="0" />
        <Node type="in" id="5" fnId="0" />
        <Node type="in" id="6" fnId="0" />
        <Node type="in" id="7" fnId="0" />
        <Node type="out" id="8" fnId="0" />
        <Node type="out" id="9" fnId="0" />
        <Node type="out" id="10" fnId="0" />
        <Node type="out" id="11" fnId="0" />
        <Node type="out" id="12" fnId="0" />
        <Node type="out" id="13" fnId="0" />
      </Nodes>
      <Connections>
        <Con id="53" src="6" tgt="11" wght="-0.50249638501554728" />
        <Con id="62" src="0" tgt="10" wght="0.57543633971363306" />
        <Con id="63" src="5" tgt="10" wght="-2.1208499930799007" />
        <Con id="64" src="5" tgt="13" wght="-2.1208499930799007" />
        <Con id="65" src="6" tgt="10" wght="-2.1208499930799007" />
        <Con id="66" src="6" tgt="13" wght="-2.1208499930799007" />
        <Con id="67" src="5" tgt="8" wght="2.8580427123233676" />
        <Con id="68" src="6" tgt="8" wght="2.9143790248781443" />
      </Connections>
    </Network>
    <Network id="56" birthGen="0" fitness="0">
      <Nodes>
        <Node type="bias" id="0" fnId="0" />
        <Node type="in" id="1" fnId="0" />
        <Node type="in" id="2" fnId="0" />
        <Node type="in" id="3" fnId="0" />
        <Node type="in" id="4" fnId="0" />
        <Node type="in" id="5" fnId="0" />
        <Node type="in" id="6" fnId="0" />
        <Node type="in" id="7" fnId="0" />
        <Node type="out" id="8" fnId="0" />
        <Node type="out" id="9" fnId="0" />
        <Node type="out" id="10" fnId="0" />
        <Node type="out" id="11" fnId="0" />
        <Node type="out" id="12" fnId="0" />
        <Node type="out" id="13" fnId="0" />
      </Nodes>
      <Connections>
        <Con id="21" src="1" tgt="9" wght="4.5930046588182449" />
        <Con id="24" src="1" tgt="12" wght="0.273706060834229" />
        <Con id="47" src="5" tgt="11" wght="-0.20824710372835398" />
        <Con id="62" src="0" tgt="10" wght="0.090632559731602669" />
        <Con id="63" src="5" tgt="10" wght="-4.5168869569897652" />
        <Con id="64" src="5" tgt="13" wght="-4.5168869569897652" />
        <Con id="65" src="6" tgt="10" wght="-4.5168869569897652" />
        <Con id="66" src="6" tgt="13" wght="-4.5168869569897652" />
        <Con id="67" src="5" tgt="8" wght="2.0300315693020821" />
        <Con id="68" src="6" tgt="8" wght="0.34317144192755222" />
      </Connections>
    </Network>
    <Network id="57" birthGen="0" fitness="0">
      <Nodes>
        <Node type="bias" id="0" fnId="0" />
        <Node type="in" id="1" fnId="0" />
        <Node type="in" id="2" fnId="0" />
        <Node type="in" id="3" fnId="0" />
        <Node type="in" id="4" fnId="0" />
        <Node type="in" id="5" fnId="0" />
        <Node type="in" id="6" fnId="0" />
        <Node type="in" id="7" fnId="0" />
        <Node type="out" id="8" fnId="0" />
        <Node type="out" id="9" fnId="0" />
        <Node type="out" id="10" fnId="0" />
        <Node type="out" id="11" fnId="0" />
        <Node type="out" id="12" fnId="0" />
        <Node type="out" id="13" fnId="0" />
      </Nodes>
      <Connections>
        <Con id="22" src="1" tgt="10" wght="-2.1921692648902535" />
        <Con id="62" src="0" tgt="10" wght="4.8376359371468425" />
        <Con id="63" src="5" tgt="10" wght="-4.1494765458628535" />
        <Con id="64" src="5" tgt="13" wght="-4.1494765458628535" />
        <Con id="65" src="6" tgt="10" wght="-4.1494765458628535" />
        <Con id="66" src="6" tgt="13" wght="-4.1494765458628535" />
        <Con id="67" src="5" tgt="8" wght="3.6061937548220158" />
        <Con id="68" src="6" tgt="8" wght="0.91860234271734953" />
      </Connections>
    </Network>
    <Network id="58" birthGen="0" fitness="0">
      <Nodes>
        <Node type="bias" id="0" fnId="0" />
        <Node type="in" id="1" fnId="0" />
        <Node type="in" id="2" fnId="0" />
        <Node type="in" id="3" fnId="0" />
        <Node type="in" id="4" fnId="0" />
        <Node type="in" id="5" fnId="0" />
        <Node type="in" id="6" fnId="0" />
        <Node type="in" id="7" fnId="0" />
        <Node type="out" id="8" fnId="0" />
        <Node type="out" id="9" fnId="0" />
        <Node type="out" id="10" fnId="0" />
        <Node type="out" id="11" fnId="0" />
        <Node type="out" id="12" fnId="0" />
        <Node type="out" id="13" fnId="0" />
      </Nodes>
      <Connections>
        <Con id="32" src="3" tgt="8" wght="-2.7675782330334187" />
        <Con id="39" src="4" tgt="9" wght="3.5602542711421847" />
        <Con id="40" src="4" tgt="10" wght="-3.5639257123693824" />
        <Con id="62" src="0" tgt="10" wght="3.4419009368866682" />
        <Con id="63" src="5" tgt="10" wght="-0.36904412321746349" />
        <Con id="64" src="5" tgt="13" wght="-0.36904412321746349" />
        <Con id="65" src="6" tgt="10" wght="-0.36904412321746349" />
        <Con id="66" src="6" tgt="13" wght="-0.36904412321746349" />
        <Con id="67" src="5" tgt="8" wght="4.8736407049000263" />
        <Con id="68" src="6" tgt="8" wght="3.9701457833871245" />
      </Connections>
    </Network>
    <Network id="59" birthGen="0" fitness="0">
      <Nodes>
        <Node type="bias" id="0" fnId="0" />
        <Node type="in" id="1" fnId="0" />
        <Node type="in" id="2" fnId="0" />
        <Node type="in" id="3" fnId="0" />
        <Node type="in" id="4" fnId="0" />
        <Node type="in" id="5" fnId="0" />
        <Node type="in" id="6" fnId="0" />
        <Node type="in" id="7" fnId="0" />
        <Node type="out" id="8" fnId="0" />
        <Node type="out" id="9" fnId="0" />
        <Node type="out" id="10" fnId="0" />
        <Node type="out" id="11" fnId="0" />
        <Node type="out" id="12" fnId="0" />
        <Node type="out" id="13" fnId="0" />
      </Nodes>
      <Connections>
        <Con id="30" src="2" tgt="12" wght="-0.51655035465955734" />
        <Con id="53" src="6" tgt="11" wght="-3.946487084031105" />
        <Con id="61" src="7" tgt="13" wght="-4.98928178101778" />
        <Con id="62" src="0" tgt="10" wght="1.0678233252838254" />
        <Con id="63" src="5" tgt="10" wght="-3.7342307297512889" />
        <Con id="64" src="5" tgt="13" wght="-3.7342307297512889" />
        <Con id="65" src="6" tgt="10" wght="-3.7342307297512889" />
        <Con id="66" src="6" tgt="13" wght="-3.7342307297512889" />
        <Con id="67" src="5" tgt="8" wght="4.3727044994011521" />
        <Con id="68" src="6" tgt="8" wght="3.2992786075919867" />
      </Connections>
    </Network>
    <Network id="60" birthGen="0" fitness="0">
      <Nodes>
        <Node type="bias" id="0" fnId="0" />
        <Node type="in" id="1" fnId="0" />
        <Node type="in" id="2" fnId="0" />
        <Node type="in" id="3" fnId="0" />
        <Node type="in" id="4" fnId="0" />
        <Node type="in" id="5" fnId="0" />
        <Node type="in" id="6" fnId="0" />
        <Node type="in" id="7" fnId="0" />
        <Node type="out" id="8" fnId="0" />
        <Node type="out" id="9" fnId="0" />
        <Node type="out" id="10" fnId="0" />
        <Node type="out" id="11" fnId="0" />
        <Node type="out" id="12" fnId="0" />
        <Node type="out" id="13" fnId="0" />
      </Nodes>
      <Connections>
        <Con id="34" src="3" tgt="10" wght="-4.4014107529073954" />
        <Con id="43" src="4" tgt="13" wght="3.3667618688195944" />
        <Con id="62" src="0" tgt="10" wght="4.8584041185677052" />
        <Con id="63" src="5" tgt="10" wght="-4.4001793209463358" />
        <Con id="64" src="5" tgt="13" wght="-4.4001793209463358" />
        <Con id="65" src="6" tgt="10" wght="-4.4001793209463358" />
        <Con id="66" src="6" tgt="13" wght="-4.4001793209463358" />
        <Con id="67" src="5" tgt="8" wght="2.3705161036923528" />
        <Con id="68" src="6" tgt="8" wght="3.3251249464228749" />
      </Connections>
    </Network>
    <Network id="61" birthGen="0" fitness="0">
      <Nodes>
        <Node type="bias" id="0" fnId="0" />
        <Node type="in" id="1" fnId="0" />
        <Node type="in" id="2" fnId="0" />
        <Node type="in" id="3" fnId="0" />
        <Node type="in" id="4" fnId="0" />
        <Node type="in" id="5" fnId="0" />
        <Node type="in" id="6" fnId="0" />
        <Node type="in" id="7" fnId="0" />
        <Node type="out" id="8" fnId="0" />
        <Node type="out" id="9" fnId="0" />
        <Node type="out" id="10" fnId="0" />
        <Node type="out" id="11" fnId="0" />
        <Node type="out" id="12" fnId="0" />
        <Node type="out" id="13" fnId="0" />
      </Nodes>
      <Connections>
        <Con id="22" src="1" tgt="10" wght="3.0950109846889973" />
        <Con id="29" src="2" tgt="11" wght="-2.6822462119162083" />
        <Con id="62" src="0" tgt="10" wght="3.1526953494176269" />
        <Con id="63" src="5" tgt="10" wght="-3.7992448313161731" />
        <Con id="64" src="5" tgt="13" wght="-3.7992448313161731" />
        <Con id="65" src="6" tgt="10" wght="-3.7992448313161731" />
        <Con id="66" src="6" tgt="13" wght="-3.7992448313161731" />
        <Con id="67" src="5" tgt="8" wght="2.6996148005127907" />
        <Con id="68" src="6" tgt="8" wght="1.9913979293778539" />
      </Connections>
    </Network>
    <Network id="62" birthGen="0" fitness="0">
      <Nodes>
        <Node type="bias" id="0" fnId="0" />
        <Node type="in" id="1" fnId="0" />
        <Node type="in" id="2" fnId="0" />
        <Node type="in" id="3" fnId="0" />
        <Node type="in" id="4" fnId="0" />
        <Node type="in" id="5" fnId="0" />
        <Node type="in" id="6" fnId="0" />
        <Node type="in" id="7" fnId="0" />
        <Node type="out" id="8" fnId="0" />
        <Node type="out" id="9" fnId="0" />
        <Node type="out" id="10" fnId="0" />
        <Node type="out" id="11" fnId="0" />
        <Node type="out" id="12" fnId="0" />
        <Node type="out" id="13" fnId="0" />
      </Nodes>
      <Connections>
        <Con id="22" src="1" tgt="10" wght="4.9228842603042722" />
        <Con id="29" src="2" tgt="11" wght="-0.35016958601772785" />
        <Con id="31" src="2" tgt="13" wght="-3.018955085426569" />
        <Con id="62" src="0" tgt="10" wght="0.41841382160782814" />
        <Con id="63" src="5" tgt="10" wght="-1.3911324553191662" />
        <Con id="64" src="5" tgt="13" wght="-1.3911324553191662" />
        <Con id="65" src="6" tgt="10" wght="-1.3911324553191662" />
        <Con id="66" src="6" tgt="13" wght="-1.3911324553191662" />
        <Con id="67" src="5" tgt="8" wght="0.66584524232894182" />
        <Con id="68" src="6" tgt="8" wght="1.9759857933968306" />
      </Connections>
    </Network>
    <Network id="63" birthGen="0" fitness="0">
      <Nodes>
        <Node type="bias" id="0" fnId="0" />
        <Node type="in" id="1" fnId="0" />
        <Node type="in" id="2" fnId="0" />
        <Node type="in" id="3" fnId="0" />
        <Node type="in" id="4" fnId="0" />
        <Node type="in" id="5" fnId="0" />
        <Node type="in" id="6" fnId="0" />
        <Node type="in" id="7" fnId="0" />
        <Node type="out" id="8" fnId="0" />
        <Node type="out" id="9" fnId="0" />
        <Node type="out" id="10" fnId="0" />
        <Node type="out" id="11" fnId="0" />
        <Node type="out" id="12" fnId="0" />
        <Node type="out" id="13" fnId="0" />
      </Nodes>
      <Connections>
        <Con id="18" src="0" tgt="12" wght="0.9245583787560463" />
        <Con id="28" src="2" tgt="10" wght="2.2655375767499208" />
        <Con id="62" src="0" tgt="10" wght="0.68360693287104368" />
        <Con id="63" src="5" tgt="10" wght="-4.8819446843117476" />
        <Con id="64" src="5" tgt="13" wght="-4.8819446843117476" />
        <Con id="65" src="6" tgt="10" wght="-4.8819446843117476" />
        <Con id="66" src="6" tgt="13" wght="-4.8819446843117476" />
        <Con id="67" src="5" tgt="8" wght="4.4486584095284343" />
        <Con id="68" src="6" tgt="8" wght="3.4230621764436364" />
      </Connections>
    </Network>
    <Network id="64" birthGen="0" fitness="0">
      <Nodes>
        <Node type="bias" id="0" fnId="0" />
        <Node type="in" id="1" fnId="0" />
        <Node type="in" id="2" fnId="0" />
        <Node type="in" id="3" fnId="0" />
        <Node type="in" id="4" fnId="0" />
        <Node type="in" id="5" fnId="0" />
        <Node type="in" id="6" fnId="0" />
        <Node type="in" id="7" fnId="0" />
        <Node type="out" id="8" fnId="0" />
        <Node type="out" id="9" fnId="0" />
        <Node type="out" id="10" fnId="0" />
        <Node type="out" id="11" fnId="0" />
        <Node type="out" id="12" fnId="0" />
        <Node type="out" id="13" fnId="0" />
      </Nodes>
      <Connections>
        <Con id="15" src="0" tgt="9" wght="-1.0353286983445287" />
        <Con id="43" src="4" tgt="13" wght="1.9506247760728002" />
        <Con id="48" src="5" tgt="12" wght="-1.8244131794199347" />
        <Con id="62" src="0" tgt="10" wght="0.42929152958095074" />
        <Con id="63" src="5" tgt="10" wght="-3.9063505735248327" />
        <Con id="64" src="5" tgt="13" wght="-3.9063505735248327" />
        <Con id="65" src="6" tgt="10" wght="-3.9063505735248327" />
        <Con id="66" src="6" tgt="13" wght="-3.9063505735248327" />
        <Con id="67" src="5" tgt="8" wght="3.9102193294093013" />
        <Con id="68" src="6" tgt="8" wght="3.1760210311040282" />
      </Connections>
    </Network>
    <Network id="65" birthGen="0" fitness="0">
      <Nodes>
        <Node type="bias" id="0" fnId="0" />
        <Node type="in" id="1" fnId="0" />
        <Node type="in" id="2" fnId="0" />
        <Node type="in" id="3" fnId="0" />
        <Node type="in" id="4" fnId="0" />
        <Node type="in" id="5" fnId="0" />
        <Node type="in" id="6" fnId="0" />
        <Node type="in" id="7" fnId="0" />
        <Node type="out" id="8" fnId="0" />
        <Node type="out" id="9" fnId="0" />
        <Node type="out" id="10" fnId="0" />
        <Node type="out" id="11" fnId="0" />
        <Node type="out" id="12" fnId="0" />
        <Node type="out" id="13" fnId="0" />
      </Nodes>
      <Connections>
        <Con id="41" src="4" tgt="11" wght="4.3256134400144219" />
        <Con id="42" src="4" tgt="12" wght="2.8705731593072414" />
        <Con id="47" src="5" tgt="11" wght="-1.6531639359891415" />
        <Con id="62" src="0" tgt="10" wght="2.7879780856892467" />
        <Con id="63" src="5" tgt="10" wght="-3.6829188792034984" />
        <Con id="64" src="5" tgt="13" wght="-3.6829188792034984" />
        <Con id="65" src="6" tgt="10" wght="-3.6829188792034984" />
        <Con id="66" src="6" tgt="13" wght="-3.6829188792034984" />
        <Con id="67" src="5" tgt="8" wght="2.9318359540775418" />
        <Con id="68" src="6" tgt="8" wght="4.5420385245233774" />
      </Connections>
    </Network>
    <Network id="66" birthGen="0" fitness="0">
      <Nodes>
        <Node type="bias" id="0" fnId="0" />
        <Node type="in" id="1" fnId="0" />
        <Node type="in" id="2" fnId="0" />
        <Node type="in" id="3" fnId="0" />
        <Node type="in" id="4" fnId="0" />
        <Node type="in" id="5" fnId="0" />
        <Node type="in" id="6" fnId="0" />
        <Node type="in" id="7" fnId="0" />
        <Node type="out" id="8" fnId="0" />
        <Node type="out" id="9" fnId="0" />
        <Node type="out" id="10" fnId="0" />
        <Node type="out" id="11" fnId="0" />
        <Node type="out" id="12" fnId="0" />
        <Node type="out" id="13" fnId="0" />
      </Nodes>
      <Connections>
        <Con id="28" src="2" tgt="10" wght="-4.8809882253408432" />
        <Con id="40" src="4" tgt="10" wght="1.0240066982805729" />
        <Con id="62" src="0" tgt="10" wght="1.1970348982140422" />
        <Con id="63" src="5" tgt="10" wght="-3.7171659106388688" />
        <Con id="64" src="5" tgt="13" wght="-3.7171659106388688" />
        <Con id="65" src="6" tgt="10" wght="-3.7171659106388688" />
        <Con id="66" src="6" tgt="13" wght="-3.7171659106388688" />
        <Con id="67" src="5" tgt="8" wght="0.90882071293890476" />
        <Con id="68" src="6" tgt="8" wght="2.3066437197849154" />
      </Connections>
    </Network>
    <Network id="67" birthGen="0" fitness="0">
      <Nodes>
        <Node type="bias" id="0" fnId="0" />
        <Node type="in" id="1" fnId="0" />
        <Node type="in" id="2" fnId="0" />
        <Node type="in" id="3" fnId="0" />
        <Node type="in" id="4" fnId="0" />
        <Node type="in" id="5" fnId="0" />
        <Node type="in" id="6" fnId="0" />
        <Node type="in" id="7" fnId="0" />
        <Node type="out" id="8" fnId="0" />
        <Node type="out" id="9" fnId="0" />
        <Node type="out" id="10" fnId="0" />
        <Node type="out" id="11" fnId="0" />
        <Node type="out" id="12" fnId="0" />
        <Node type="out" id="13" fnId="0" />
      </Nodes>
      <Connections>
        <Con id="43" src="4" tgt="13" wght="2.7927981549873948" />
        <Con id="62" src="0" tgt="10" wght="1.1811320716515183" />
        <Con id="63" src="5" tgt="10" wght="-3.6133217066526413" />
        <Con id="64" src="5" tgt="13" wght="-3.6133217066526413" />
        <Con id="65" src="6" tgt="10" wght="-3.6133217066526413" />
        <Con id="66" src="6" tgt="13" wght="-3.6133217066526413" />
        <Con id="67" src="5" tgt="8" wght="4.4738621404394507" />
        <Con id="68" src="6" tgt="8" wght="2.3607292538508773" />
      </Connections>
    </Network>
    <Network id="68" birthGen="0" fitness="0">
      <Nodes>
        <Node type="bias" id="0" fnId="0" />
        <Node type="in" id="1" fnId="0" />
        <Node type="in" id="2" fnId="0" />
        <Node type="in" id="3" fnId="0" />
        <Node type="in" id="4" fnId="0" />
        <Node type="in" id="5" fnId="0" />
        <Node type="in" id="6" fnId="0" />
        <Node type="in" id="7" fnId="0" />
        <Node type="out" id="8" fnId="0" />
        <Node type="out" id="9" fnId="0" />
        <Node type="out" id="10" fnId="0" />
        <Node type="out" id="11" fnId="0" />
        <Node type="out" id="12" fnId="0" />
        <Node type="out" id="13" fnId="0" />
      </Nodes>
      <Connections>
        <Con id="14" src="0" tgt="8" wght="-2.7353083016350865" />
        <Con id="47" src="5" tgt="11" wght="-0.074833608232438564" />
        <Con id="62" src="0" tgt="10" wght="1.401243326254189" />
        <Con id="63" src="5" tgt="10" wght="-3.8849806366488338" />
        <Con id="64" src="5" tgt="13" wght="-3.8849806366488338" />
        <Con id="65" src="6" tgt="10" wght="-3.8849806366488338" />
        <Con id="66" src="6" tgt="13" wght="-3.8849806366488338" />
        <Con id="67" src="5" tgt="8" wght="4.13435329683125" />
        <Con id="68" src="6" tgt="8" wght="3.552022073417902" />
      </Connections>
    </Network>
    <Network id="69" birthGen="0" fitness="0">
      <Nodes>
        <Node type="bias" id="0" fnId="0" />
        <Node type="in" id="1" fnId="0" />
        <Node type="in" id="2" fnId="0" />
        <Node type="in" id="3" fnId="0" />
        <Node type="in" id="4" fnId="0" />
        <Node type="in" id="5" fnId="0" />
        <Node type="in" id="6" fnId="0" />
        <Node type="in" id="7" fnId="0" />
        <Node type="out" id="8" fnId="0" />
        <Node type="out" id="9" fnId="0" />
        <Node type="out" id="10" fnId="0" />
        <Node type="out" id="11" fnId="0" />
        <Node type="out" id="12" fnId="0" />
        <Node type="out" id="13" fnId="0" />
      </Nodes>
      <Connections>
        <Con id="39" src="4" tgt="9" wght="0.83826543297618628" />
        <Con id="58" src="7" tgt="10" wght="2.452759244479239" />
        <Con id="62" src="0" tgt="10" wght="4.288148763589561" />
        <Con id="63" src="5" tgt="10" wght="-1.9658045703545213" />
        <Con id="64" src="5" tgt="13" wght="-1.9658045703545213" />
        <Con id="65" src="6" tgt="10" wght="-1.9658045703545213" />
        <Con id="66" src="6" tgt="13" wght="-1.9658045703545213" />
        <Con id="67" src="5" tgt="8" wght="3.16048301756382" />
        <Con id="68" src="6" tgt="8" wght="1.949657597579062" />
      </Connections>
    </Network>
    <Network id="70" birthGen="0" fitness="0">
      <Nodes>
        <Node type="bias" id="0" fnId="0" />
        <Node type="in" id="1" fnId="0" />
        <Node type="in" id="2" fnId="0" />
        <Node type="in" id="3" fnId="0" />
        <Node type="in" id="4" fnId="0" />
        <Node type="in" id="5" fnId="0" />
        <Node type="in" id="6" fnId="0" />
        <Node type="in" id="7" fnId="0" />
        <Node type="out" id="8" fnId="0" />
        <Node type="out" id="9" fnId="0" />
        <Node type="out" id="10" fnId="0" />
        <Node type="out" id="11" fnId="0" />
        <Node type="out" id="12" fnId="0" />
        <Node type="out" id="13" fnId="0" />
      </Nodes>
      <Connections>
        <Con id="36" src="3" tgt="12" wght="2.5195496110245585" />
        <Con id="39" src="4" tgt="9" wght="4.1444731736555696" />
        <Con id="58" src="7" tgt="10" wght="-4.9439074192196131" />
        <Con id="62" src="0" tgt="10" wght="2.3201392916962504" />
        <Con id="63" src="5" tgt="10" wght="-2.4731136485934258" />
        <Con id="64" src="5" tgt="13" wght="-2.4731136485934258" />
        <Con id="65" src="6" tgt="10" wght="-2.4731136485934258" />
        <Con id="66" src="6" tgt="13" wght="-2.4731136485934258" />
        <Con id="67" src="5" tgt="8" wght="1.3832274172455072" />
        <Con id="68" src="6" tgt="8" wght="1.8197226617485285" />
      </Connections>
    </Network>
    <Network id="71" birthGen="0" fitness="0">
      <Nodes>
        <Node type="bias" id="0" fnId="0" />
        <Node type="in" id="1" fnId="0" />
        <Node type="in" id="2" fnId="0" />
        <Node type="in" id="3" fnId="0" />
        <Node type="in" id="4" fnId="0" />
        <Node type="in" id="5" fnId="0" />
        <Node type="in" id="6" fnId="0" />
        <Node type="in" id="7" fnId="0" />
        <Node type="out" id="8" fnId="0" />
        <Node type="out" id="9" fnId="0" />
        <Node type="out" id="10" fnId="0" />
        <Node type="out" id="11" fnId="0" />
        <Node type="out" id="12" fnId="0" />
        <Node type="out" id="13" fnId="0" />
      </Nodes>
      <Connections>
        <Con id="25" src="1" tgt="13" wght="-3.790627378039062" />
        <Con id="26" src="2" tgt="8" wght="-3.3987398166209459" />
        <Con id="62" src="0" tgt="10" wght="2.6652869721874595" />
        <Con id="63" src="5" tgt="10" wght="-0.70627511478960514" />
        <Con id="64" src="5" tgt="13" wght="-0.70627511478960514" />
        <Con id="65" src="6" tgt="10" wght="-0.70627511478960514" />
        <Con id="66" src="6" tgt="13" wght="-0.70627511478960514" />
        <Con id="67" src="5" tgt="8" wght="3.3495189435780048" />
        <Con id="68" src="6" tgt="8" wght="4.9170873360708356" />
      </Connections>
    </Network>
    <Network id="72" birthGen="0" fitness="0">
      <Nodes>
        <Node type="bias" id="0" fnId="0" />
        <Node type="in" id="1" fnId="0" />
        <Node type="in" id="2" fnId="0" />
        <Node type="in" id="3" fnId="0" />
        <Node type="in" id="4" fnId="0" />
        <Node type="in" id="5" fnId="0" />
        <Node type="in" id="6" fnId="0" />
        <Node type="in" id="7" fnId="0" />
        <Node type="out" id="8" fnId="0" />
        <Node type="out" id="9" fnId="0" />
        <Node type="out" id="10" fnId="0" />
        <Node type="out" id="11" fnId="0" />
        <Node type="out" id="12" fnId="0" />
        <Node type="out" id="13" fnId="0" />
      </Nodes>
      <Connections>
        <Con id="25" src="1" tgt="13" wght="-2.6707062963396311" />
        <Con id="32" src="3" tgt="8" wght="-3.9571609068661928" />
        <Con id="36" src="3" tgt="12" wght="-4.4138604728505015" />
        <Con id="62" src="0" tgt="10" wght="0.019497335888445377" />
        <Con id="63" src="5" tgt="10" wght="-3.8371025258675218" />
        <Con id="64" src="5" tgt="13" wght="-3.8371025258675218" />
        <Con id="65" src="6" tgt="10" wght="-3.8371025258675218" />
        <Con id="66" src="6" tgt="13" wght="-3.8371025258675218" />
        <Con id="67" src="5" tgt="8" wght="3.9539345121011138" />
        <Con id="68" src="6" tgt="8" wght="0.57738111820071936" />
      </Connections>
    </Network>
    <Network id="73" birthGen="0" fitness="0">
      <Nodes>
        <Node type="bias" id="0" fnId="0" />
        <Node type="in" id="1" fnId="0" />
        <Node type="in" id="2" fnId="0" />
        <Node type="in" id="3" fnId="0" />
        <Node type="in" id="4" fnId="0" />
        <Node type="in" id="5" fnId="0" />
        <Node type="in" id="6" fnId="0" />
        <Node type="in" id="7" fnId="0" />
        <Node type="out" id="8" fnId="0" />
